%YAML:1.0
---
opencv_ml_svm:
   format: 3
   svmType: C_SVC
   kernel:
      type: RBF
      gamma: 5.0000000000000000e-01
   C: 1.
   term_criteria: { epsilon:1.1920928955078125e-07, iterations:1000 }
   var_count: 64
   class_count: 2
   class_labels: !!opencv-matrix
      rows: 2
      cols: 1
      dt: i
      data: [ 0, 1 ]
   sv_total: 1968
   support_vectors:
      - [ 6.63957372e-02, 3.53716910e-02, 3.73399630e-02, 3.17295417e-02,
          3.79984714e-02, 4.04090248e-02, 2.17950661e-02, 1.50920358e-02,
          1.80467870e-02, 1.01822512e-02, 1.10103674e-02, 4.30656783e-03,
          1.74406245e-02, 0., 1.20119909e-02, 4.10211608e-02,
          6.53593019e-02, 2.37538218e-02, 1.71984565e-02, 5.24931066e-02,
          9.83876362e-02, 3.73267159e-02, 3.10356990e-02, 8.42837468e-02,
          2.76062861e-02, 1.89336110e-02, 1.33591648e-02, 1.02607599e-02,
          7.21597597e-02, 5.60558587e-02, 8.97268876e-02, 1.43097416e-01,
          1.48727030e-01, 9.31787416e-02, 1.01286337e-01, 1.34739950e-01,
          1.87010765e-01, 1.62107185e-01, 1.55978486e-01, 1.76670849e-01,
          9.72664580e-02, 7.51918331e-02, 4.87625822e-02, 8.39981660e-02,
          7.74646029e-02, 6.07042015e-02, 1.07019000e-01, 1.69687837e-01,
          1.52588427e-01, 1.12866640e-01, 9.64128226e-02, 3.16948473e-01,
          3.78127277e-01, 1.59635082e-01, 2.14449123e-01, 2.15570837e-01,
          1.33132413e-01, 9.92346555e-02, 1.15066290e-01, 1.94962054e-01,
          2.34720454e-01, 1.72854930e-01, 1.84247196e-01, 2.55384862e-01 ]
      - [ 8.06983337e-02, 1.32564958e-02, 1.44643849e-02, 2.57197954e-02,
          3.59328650e-02, 1.48099521e-02, 2.51083933e-02, 3.99567038e-02,
          3.23109701e-02, 1.94452666e-02, 2.86142733e-02, 4.73485216e-02,
          3.43642756e-02, 6.03970839e-03, 1.05939014e-02, 9.89951342e-02,
          7.69176558e-02, 5.37212156e-02, 1.84168592e-02, 1.92757696e-02,
          3.06552351e-02, 2.66104285e-02, 5.83266281e-02, 7.99354017e-02,
          3.55049968e-02, 1.71338953e-02, 1.40280835e-02, 9.93206538e-03,
          1.55574828e-02, 2.38737557e-02, 5.32451645e-02, 1.74351394e-01,
          1.03718705e-01, 1.07415490e-01, 1.21197313e-01, 2.04653218e-01,
          1.79119155e-01, 1.16892010e-01, 1.12950750e-01, 9.50943753e-02,
          9.27561522e-02, 6.58109263e-02, 8.12456831e-02, 2.22957596e-01,
          1.74253166e-01, 9.44731683e-02, 8.32878202e-02, 8.34213942e-02,
          2.42075980e-01, 1.67238295e-01, 1.37683585e-01, 2.06922501e-01,
          2.70212114e-01, 1.78553745e-01, 2.15350911e-01, 2.31797159e-01,
          2.49173447e-01, 1.68033198e-01, 1.46290481e-01, 1.45768940e-01,
          1.89823195e-01, 1.83142588e-01, 1.83413237e-01, 2.40552098e-01 ]
      - [ 2.99897343e-02, 2.66382284e-02, 3.35283317e-02, 7.64539391e-02,
          5.62801287e-02, 4.46169544e-03, 4.91329376e-03, 0.,
          7.83910416e-03, 6.01753080e-03, 5.87910414e-03, 5.06573310e-03,
          4.13157092e-03, 0., 0., 5.40083507e-03, 6.88356683e-02,
          3.15574221e-02, 2.83828583e-02, 7.15540946e-02, 3.04532312e-02,
          1.60307512e-02, 1.20981419e-02, 0., 0., 5.46443881e-03, 0.,
          5.70353307e-02, 9.09542069e-02, 2.60144304e-02, 2.38234308e-02,
          5.70337474e-02, 2.26905376e-01, 1.29942417e-01, 8.40846375e-02,
          7.26707056e-02, 9.83482972e-02, 7.65064582e-02, 1.02828972e-01,
          2.11793959e-01, 1.36300072e-01, 5.18292896e-02, 4.20472212e-02,
          1.38143316e-01, 6.61174357e-02, 4.80058081e-02, 4.93401438e-02,
          6.99368641e-02, 3.86035949e-01, 1.52606830e-01, 1.45954967e-01,
          2.50422537e-01, 2.41143852e-01, 1.29623458e-01, 1.58204615e-01,
          3.31816494e-01, 3.29657882e-01, 1.63245678e-01, 9.53832194e-02,
          1.66369751e-01, 1.58148602e-01, 1.31658852e-01, 1.26971349e-01,
          2.32786357e-01 ]
      - [ 1.25186950e-01, 4.61300723e-02, 3.67419347e-02, 2.85264179e-02,
          3.18547301e-02, 1.96893085e-02, 2.65439134e-02, 1.06765414e-02,
          3.16828154e-02, 1.88540146e-02, 0., 4.23997268e-03, 0., 0.,
          8.80706217e-03, 6.99675223e-03, 1.02044441e-01, 5.47261238e-02,
          3.18857580e-02, 6.65398017e-02, 1.19721822e-01, 2.87998319e-02,
          1.51428971e-02, 2.52146646e-02, 2.11728122e-02, 2.79534888e-02,
          3.26139517e-02, 8.39590579e-02, 1.14765175e-01, 4.10187505e-02,
          2.76443791e-02, 2.91189831e-02, 4.46665809e-02, 9.44908336e-02,
          1.19264610e-01, 2.08463863e-01, 2.63309628e-01, 1.04454987e-01,
          6.48491532e-02, 7.72517174e-02, 8.83622691e-02, 4.26401347e-02,
          4.87918183e-02, 1.10308863e-01, 1.21063247e-01, 3.90975587e-02,
          3.65461484e-02, 2.62452066e-02, 1.98049247e-01, 2.59012073e-01,
          1.77192941e-01, 1.97749138e-01, 2.58345723e-01, 1.19904503e-01,
          1.14510514e-01, 1.36592835e-01, 2.58064538e-01, 2.41073668e-01,
          1.99379966e-01, 2.90548205e-01, 3.72498035e-01, 1.21654235e-01,
          1.16539031e-01, 9.21698511e-02 ]
      - [ 1.24069802e-01, 3.17097269e-02, 5.16783521e-02, 2.47575268e-02,
          2.64918134e-02, 1.48911262e-02, 0., 1.21545549e-02,
          2.14413833e-02, 7.84892309e-03, 7.93093164e-03, 3.69389425e-03,
          6.15174929e-03, 0., 6.09719986e-03, 1.06271422e-02,
          1.08051658e-01, 1.46562550e-02, 1.40647981e-02, 4.43252251e-02,
          5.77903204e-02, 2.61197127e-02, 2.18116641e-02, 2.00642459e-02,
          5.08563519e-02, 1.63589790e-02, 1.97091382e-02, 7.61363357e-02,
          5.73066697e-02, 4.83165942e-02, 4.40793037e-02, 5.08126542e-02,
          2.03195304e-01, 1.39832452e-01, 1.17886864e-01, 1.52165711e-01,
          1.69135481e-01, 1.09632246e-01, 1.18457243e-01, 1.45740077e-01,
          1.72737256e-01, 1.00093886e-01, 8.60262364e-02, 1.12962104e-01,
          1.25670105e-01, 7.15351552e-02, 6.73423931e-02, 7.93773085e-02,
          3.13219458e-01, 1.83399647e-01, 1.52961478e-01, 2.04167604e-01,
          2.34178588e-01, 1.25159740e-01, 1.22201942e-01, 2.20455021e-01,
          3.18845809e-01, 2.02494398e-01, 1.51955977e-01, 2.16991052e-01,
          2.46081978e-01, 1.33759618e-01, 1.36378378e-01, 1.84440315e-01 ]
      - [ 2.31547449e-02, 2.44488008e-02, 4.56997752e-02, 5.39725609e-02,
          7.65122846e-02, 4.65214550e-02, 2.00067945e-02, 2.42411364e-02,
          1.73095018e-02, 2.12998912e-02, 0., 2.08045784e-02,
          2.67426893e-02, 1.57456044e-02, 1.19374665e-02, 1.42777497e-02,
          6.63646013e-02, 4.83296178e-02, 3.86220962e-02, 3.55883539e-02,
          4.38793860e-02, 3.80228348e-02, 2.57175434e-02, 4.92975228e-02,
          4.06434238e-02, 2.11229566e-02, 4.30804119e-02, 4.16765399e-02,
          9.85112637e-02, 6.17757142e-02, 6.13538288e-02, 9.29058567e-02,
          1.43914640e-01, 1.15195043e-01, 1.15216270e-01, 2.22437248e-01,
          1.98345482e-01, 1.55183509e-01, 1.52109310e-01, 1.65540978e-01,
          1.05959684e-01, 7.40222335e-02, 6.39056712e-02, 7.31862783e-02,
          6.93945885e-02, 8.20766613e-02, 6.93494752e-02, 1.01720102e-01,
          2.14828581e-01, 1.83026388e-01, 1.34127200e-01, 1.19793303e-01,
          1.34184241e-01, 1.44533008e-01, 1.66469604e-01, 3.11213404e-01,
          2.39207909e-01, 1.92206115e-01, 1.71509445e-01, 2.68651873e-01,
          2.74520785e-01, 1.97584793e-01, 1.85012102e-01, 2.26726487e-01 ]
      - [ 8.96185637e-02, 0., 1.49926813e-02, 1.66318621e-02,
          2.41629127e-02, 1.41435927e-02, 6.61860732e-03, 3.28891091e-02,
          6.91417530e-02, 3.91313098e-02, 3.03538330e-02, 3.17942053e-02,
          3.03901285e-02, 0., 0., 2.02714875e-02, 8.61644223e-02,
          2.37753130e-02, 2.11839601e-02, 4.15002741e-02, 6.93147108e-02,
          3.55747156e-02, 5.14778383e-02, 7.58874565e-02, 1.12309381e-01,
          2.45305225e-02, 9.51092318e-03, 1.93590969e-02, 2.92857997e-02,
          2.33846530e-02, 0., 1.74915101e-02, 1.10358261e-01,
          1.07221924e-01, 1.10924795e-01, 1.40516564e-01, 1.37977242e-01,
          1.04856148e-01, 7.66247958e-02, 6.54767901e-02, 8.07760581e-02,
          8.49409252e-02, 9.76973474e-02, 1.75744534e-01, 2.11455375e-01,
          1.04422741e-01, 6.94159567e-02, 8.05362538e-02, 3.14437777e-01,
          1.74099118e-01, 1.61171496e-01, 2.92201132e-01, 3.16585273e-01,
          1.32136673e-01, 1.58173755e-01, 1.99053913e-01, 2.52664357e-01,
          2.14549124e-01, 1.86612919e-01, 1.94419608e-01, 1.85323626e-01,
          1.45778984e-01, 1.57625437e-01, 1.92708969e-01 ]
      - [ 6.83507323e-02, 7.18616918e-02, 4.40992452e-02, 1.81732234e-02,
          1.61390845e-02, 2.20091790e-02, 3.54043394e-02, 3.68801542e-02,
          2.60240771e-02, 2.15088613e-02, 1.63997523e-02, 2.19205506e-02,
          2.05529947e-02, 0., 2.12307945e-02, 3.18152122e-02,
          1.11021124e-01, 6.06052391e-02, 3.19077633e-02, 2.93037221e-02,
          5.81439808e-02, 0., 5.06784841e-02, 3.17046531e-02,
          9.73930210e-02, 1.00813791e-01, 4.96703982e-02, 2.55504083e-02,
          5.50453886e-02, 2.94948630e-02, 2.90383901e-02, 5.02591431e-02,
          1.65031567e-01, 1.62509158e-01, 1.53683051e-01, 1.31967381e-01,
          1.31249428e-01, 1.04619890e-01, 1.00549027e-01, 1.33489698e-01,
          1.58354238e-01, 1.00477219e-01, 9.39703584e-02, 1.05073884e-01,
          1.01926245e-01, 5.57973422e-02, 5.22165745e-02, 4.31011021e-02,
          4.86190647e-01, 2.16152832e-01, 9.57207605e-02, 9.01070014e-02,
          1.41219571e-01, 9.96700004e-02, 1.12328984e-01, 1.47094131e-01,
          4.77242261e-01, 2.23534673e-01, 1.30850956e-01, 9.40921456e-02,
          9.26101506e-02, 5.88262863e-02, 6.14138767e-02, 1.33978054e-01 ]
      - [ 4.65897173e-02, 3.12009845e-02, 2.03917790e-02, 3.21158618e-02,
          5.64124957e-02, 3.97516135e-03, 0., 0., 2.96062860e-03,
          1.76040025e-03, 0., 0., 2.09348043e-03, 0., 0., 0.,
          4.81222048e-02, 2.46505607e-02, 1.77953541e-02, 2.85564736e-02,
          3.45445462e-02, 1.10136131e-02, 2.23907437e-02, 2.03641448e-02,
          8.36952310e-03, 0., 0., 5.17425686e-03, 3.18293236e-02, 0.,
          2.27029435e-02, 1.10884577e-01, 9.72522125e-02, 1.01977900e-01,
          1.05324067e-01, 1.61886543e-01, 2.00516909e-01, 1.31860852e-01,
          1.32560313e-01, 7.48450309e-02, 5.41251153e-02, 3.11393328e-02,
          3.80875319e-02, 6.73334226e-02, 7.84105062e-02, 4.11705896e-02,
          3.31997685e-02, 5.73810525e-02, 3.40470612e-01, 9.87081304e-02,
          6.15143105e-02, 7.31539875e-02, 8.85791481e-02, 9.69420075e-02,
          2.01964274e-01, 5.01932561e-01, 2.81932950e-01, 1.07600547e-01,
          5.95746301e-02, 9.75025594e-02, 1.29696414e-01, 1.17965266e-01,
          1.63715959e-01, 4.53332514e-01 ]
      - [ 6.11451864e-02, 1.01418374e-02, 0., 0., 1.38342101e-02, 0., 0.,
          0., 2.73067271e-03, 9.52523760e-03, 0., 3.75945158e-02,
          1.07569195e-01, 1.96449347e-02, 3.79370339e-02, 7.13979751e-02,
          5.00070415e-02, 4.50707339e-02, 3.20358053e-02, 8.01557228e-02,
          7.56995603e-02, 2.47858837e-02, 1.05354851e-02, 9.05908179e-03,
          3.08719818e-02, 2.91952956e-02, 2.78922711e-02, 3.93788666e-02,
          1.07467145e-01, 4.79960889e-02, 2.51693688e-02, 3.85777168e-02,
          2.07705125e-02, 1.29183708e-02, 1.33176772e-02, 1.99211448e-01,
          2.37583697e-01, 8.97309836e-03, 7.22397724e-03, 3.76537349e-03,
          3.70738097e-02, 1.86626483e-02, 2.92470120e-02, 2.06095308e-01,
          3.33259255e-01, 3.10515855e-02, 1.19107235e-02, 6.24851650e-03,
          2.35198036e-01, 1.80703193e-01, 1.83026016e-01, 2.31057033e-01,
          2.41482764e-01, 1.60538316e-01, 1.61126673e-01, 1.81699589e-01,
          2.11051375e-01, 1.80705652e-01, 1.82161495e-01, 2.60633707e-01,
          3.33806038e-01, 1.79172665e-01, 1.45165116e-01, 1.48945227e-01 ]
      - [ 5.73520251e-02, 4.75101285e-02, 4.58005592e-02, 7.35044107e-02,
          4.26982082e-02, 0., 0., 4.77763489e-02, 2.96985637e-02,
          1.15385195e-02, 1.68377366e-02, 3.63618359e-02, 6.27441704e-02,
          2.87735593e-02, 2.45699938e-02, 0., 9.44077000e-02,
          3.59944738e-02, 1.99542418e-02, 1.34812249e-02, 4.30007577e-02,
          3.28915380e-02, 4.45280261e-02, 1.19728871e-01, 7.54600987e-02,
          3.83247696e-02, 8.93960427e-03, 4.01790701e-02, 6.20040074e-02,
          5.02319187e-02, 4.88147102e-02, 1.33914962e-01, 1.89954236e-01,
          1.72705680e-01, 7.44174421e-02, 8.76741409e-02, 1.11258753e-01,
          9.54152793e-02, 1.06178850e-01, 1.95536748e-01, 1.78615347e-01,
          1.60448715e-01, 4.51269932e-02, 1.14718445e-01, 1.41933516e-01,
          8.77420083e-02, 8.26385170e-02, 1.17835231e-01, 2.72866726e-01,
          1.69829801e-01, 1.13055132e-01, 1.22227348e-01, 1.50966808e-01,
          1.56722873e-01, 1.84501082e-01, 3.10369641e-01, 2.66800016e-01,
          1.75649226e-01, 1.38424352e-01, 1.59012854e-01, 1.91928923e-01,
          1.77814037e-01, 1.97825253e-01, 2.73749560e-01 ]
      - [ 6.52742907e-02, 1.42274247e-02, 0., 0., 5.84829040e-03, 0., 0.,
          0., 0., 0., 0., 0., 7.43498700e-03, 0., 1.16584143e-02,
          1.00493595e-01, 6.36233166e-02, 2.10330822e-02, 1.95818916e-02,
          2.13282760e-02, 2.49600615e-02, 1.83291584e-02, 2.19930988e-03,
          6.02305820e-03, 0., 5.81882708e-03, 9.39769577e-03,
          1.54650910e-02, 6.39054105e-02, 3.26701067e-02, 4.01654691e-02,
          1.63470566e-01, 1.61555335e-01, 9.39246118e-02, 8.00520778e-02,
          1.25657901e-01, 1.35945871e-01, 9.70752835e-02, 1.02082849e-01,
          2.07484171e-01, 1.27611950e-01, 6.64588362e-02, 6.57183379e-02,
          1.20495088e-01, 1.60779342e-01, 7.38771558e-02, 7.30766058e-02,
          1.05066516e-01, 2.73006231e-01, 1.21432245e-01, 1.24468029e-01,
          1.97731331e-01, 3.21959257e-01, 1.46567017e-01, 1.65874481e-01,
          3.47433090e-01, 2.85517156e-01, 1.57628253e-01, 1.20016411e-01,
          1.27322778e-01, 1.57634929e-01, 9.67333168e-02, 1.54899284e-01,
          3.26954573e-01 ]
      - [ 2.57751942e-02, 1.98002737e-02, 2.56299544e-02, 6.62755221e-02,
          9.15954784e-02, 4.16720994e-02, 1.06047075e-02, 7.24914763e-03,
          9.65363439e-03, 0., 1.07184211e-02, 2.17108447e-02,
          2.38612257e-02, 9.06525366e-03, 0., 0., 6.43936768e-02,
          4.10578288e-02, 4.08566482e-02, 4.70162630e-02, 6.18588403e-02,
          6.34187981e-02, 4.77411747e-02, 5.21802530e-02, 1.38168242e-02,
          4.36076559e-02, 3.69973592e-02, 7.21311718e-02, 7.51998052e-02,
          5.74086644e-02, 8.20209533e-02, 1.61376506e-01, 1.10796407e-01,
          8.45946819e-02, 1.04393452e-01, 2.60610998e-01, 2.71944880e-01,
          1.46044776e-01, 1.33314937e-01, 1.26350284e-01, 8.75670463e-02,
          3.46703269e-02, 5.46139330e-02, 5.74157387e-02, 8.08971599e-02,
          9.84411389e-02, 6.85364306e-02, 9.67311412e-02, 1.89044312e-01,
          1.21802531e-01, 9.08010826e-02, 1.64650589e-01, 2.22350568e-01,
          1.63536459e-01, 2.33758181e-01, 2.84500897e-01, 1.92518145e-01,
          1.50526077e-01, 1.28818661e-01, 2.19363585e-01, 2.45225728e-01,
          1.77638337e-01, 1.96224779e-01, 2.90328085e-01 ]
      - [ 4.51957621e-02, 5.76982787e-03, 0., 0., 1.12996157e-02, 0., 0.,
          5.01833437e-03, 9.23621003e-03, 5.97793469e-03, 6.62974780e-03,
          7.53664458e-03, 2.27671415e-02, 8.57741106e-03, 1.60507932e-02,
          1.77014284e-02, 5.06509766e-02, 1.52615504e-02, 1.22816116e-02,
          8.59294552e-03, 2.54993271e-02, 1.92487650e-02, 5.68184629e-02,
          3.46711129e-02, 3.47814932e-02, 1.61363631e-02, 8.35360959e-03,
          8.76705721e-03, 1.34301903e-02, 9.49572492e-03, 1.56957209e-02,
          2.05661077e-02, 2.05043539e-01, 1.73452780e-01, 1.14617020e-01,
          1.15159348e-01, 8.64577442e-02, 1.28617048e-01, 1.50518656e-01,
          1.54123425e-01, 1.74445525e-01, 9.89972800e-02, 7.55288005e-02,
          6.70221224e-02, 8.50254297e-02, 7.17820972e-02, 8.49891976e-02,
          1.39507279e-01, 4.56964910e-01, 1.47768363e-01, 1.10173352e-01,
          1.14980280e-01, 1.20895818e-01, 9.42000821e-02, 9.56688747e-02,
          1.69223860e-01, 4.64458585e-01, 2.09160358e-01, 1.35059908e-01,
          1.43706039e-01, 1.50194123e-01, 1.50433719e-01, 1.44096389e-01,
          2.12839216e-01 ]
      - [ 8.81209970e-02, 4.93953228e-02, 4.26093489e-02, 3.99356000e-02,
          2.62052715e-02, 2.95589324e-02, 1.47970393e-02, 1.32717639e-02,
          2.41563413e-02, 2.00087782e-02, 1.41089689e-02, 0.,
          1.54375695e-02, 1.83048099e-02, 5.01899868e-02, 4.42168377e-02,
          1.29859492e-01, 4.69151959e-02, 4.52866144e-02, 4.28951122e-02,
          3.04643121e-02, 2.09749620e-02, 1.32025294e-02, 4.49056663e-02,
          7.02233836e-02, 3.40047292e-02, 4.79228273e-02, 5.07337078e-02,
          6.44892976e-02, 5.00251427e-02, 4.89656180e-02, 4.72379066e-02,
          1.54155567e-01, 2.06812873e-01, 9.03881714e-02, 1.16504833e-01,
          1.55585900e-01, 9.89165902e-02, 9.76996720e-02, 1.21881597e-01,
          1.83039114e-01, 1.88785523e-01, 6.59723431e-02, 1.02720767e-01,
          1.45125568e-01, 8.89456868e-02, 9.52515975e-02, 8.80868062e-02,
          2.70082057e-01, 1.83191046e-01, 1.57702446e-01, 2.15406165e-01,
          2.04474866e-01, 1.68181047e-01, 2.08226785e-01, 2.33207598e-01,
          3.02739441e-01, 1.61513388e-01, 1.54690608e-01, 1.40301272e-01,
          1.84427679e-01, 1.79384202e-01, 1.80364549e-01, 2.17313901e-01 ]
      - [ 3.67872743e-03, 2.17555203e-02, 3.88833918e-02, 4.37050276e-02,
          7.46534094e-02, 4.28967439e-02, 1.35083701e-02, 3.05640488e-03,
          1.50408288e-02, 3.82386358e-03, 1.26311108e-02, 1.63592529e-02,
          1.86890494e-02, 8.25590920e-03, 1.42446924e-02, 5.64060081e-03,
          6.60848320e-02, 3.10420096e-02, 3.78817879e-02, 6.44827187e-02,
          7.50489756e-02, 4.12481949e-02, 2.70962231e-02, 3.32374908e-02,
          3.67140956e-02, 2.95367818e-02, 2.92429291e-02, 6.86106756e-02,
          8.22219327e-02, 6.29625916e-02, 6.33589551e-02, 1.23879127e-01,
          8.35242867e-02, 7.94526562e-02, 1.15718089e-01, 2.54536837e-01,
          2.65999496e-01, 1.64283901e-01, 7.36407489e-02, 1.05965160e-01,
          5.53482771e-02, 3.33055072e-02, 2.88463589e-02, 7.44426548e-02,
          9.02882218e-02, 6.18204139e-02, 6.48340359e-02, 4.39005569e-02,
          1.81937605e-01, 9.78624448e-02, 9.10905451e-02, 1.89349473e-01,
          2.10571617e-01, 1.85707554e-01, 2.63239473e-01, 2.46155992e-01,
          1.47701427e-01, 1.22036368e-01, 1.26472428e-01, 3.00769567e-01,
          3.18744361e-01, 2.11996332e-01, 2.06815451e-01, 2.58188069e-01 ]
      - [ 4.36725952e-02, 1.44646997e-02, 5.12736216e-02, 5.41171916e-02,
          5.62961884e-02, 3.12563367e-02, 1.20025743e-02, 1.74960885e-02,
          5.55200689e-02, 1.99111104e-02, 2.13747807e-02, 3.28474604e-02,
          2.87213419e-02, 7.75876362e-03, 7.57382764e-03, 1.35019841e-02,
          5.26274070e-02, 6.37688041e-02, 4.35178392e-02, 6.56972080e-02,
          9.01883468e-02, 2.74792276e-02, 3.13406773e-02, 4.12887186e-02,
          3.78769301e-02, 3.34751643e-02, 5.16093671e-02, 8.00233930e-02,
          9.32572931e-02, 3.81057709e-02, 4.11834978e-02, 2.98859142e-02,
          5.84266745e-02, 7.54453167e-02, 9.15157571e-02, 2.63750017e-01,
          3.06743473e-01, 1.05930641e-01, 7.64746070e-02, 6.92491680e-02,
          9.25672129e-02, 7.44635835e-02, 6.92407340e-02, 1.25806674e-01,
          1.76455319e-01, 6.01075552e-02, 4.66331132e-02, 4.32194360e-02,
          2.12100565e-01, 2.27061063e-01, 1.85461342e-01, 2.61861295e-01,
          2.38039315e-01, 1.22082502e-01, 1.12299971e-01, 1.54807359e-01,
          2.53062278e-01, 2.45171905e-01, 2.17336833e-01, 2.53075570e-01,
          2.42119253e-01, 1.57828480e-01, 1.04375973e-01, 1.36256859e-01 ]
      - [ 1.56484991e-02, 2.44237725e-02, 6.06994182e-02, 3.90674658e-02,
          6.06408641e-02, 2.72257105e-02, 2.55706403e-02, 0.,
          2.57275067e-03, 0., 1.53739648e-02, 2.90476531e-03,
          9.40553006e-03, 0., 0., 0., 5.85767254e-02, 2.46336684e-02,
          3.48005295e-02, 4.53306511e-02, 4.23001274e-02, 3.97822708e-02,
          3.51882912e-02, 4.57866155e-02, 5.75428605e-02, 3.18037160e-02,
          4.91940714e-02, 6.46046102e-02, 5.61409183e-02, 5.55264466e-02,
          5.42806126e-02, 1.61969364e-01, 1.22692741e-01, 9.69851986e-02,
          8.40155184e-02, 1.29493982e-01, 1.22737929e-01, 9.64598060e-02,
          1.15780450e-01, 2.02560216e-01, 1.10653549e-01, 1.02290653e-01,
          7.91086704e-02, 1.16198443e-01, 1.08474717e-01, 7.39262775e-02,
          7.69039020e-02, 1.70904532e-01, 1.66746020e-01, 9.46400017e-02,
          9.43610892e-02, 2.11958215e-01, 2.53970385e-01, 1.47726730e-01,
          2.18174890e-01, 2.96297789e-01, 1.93429708e-01, 1.40579283e-01,
          1.50219262e-01, 2.59696364e-01, 2.67485440e-01, 1.81362271e-01,
          1.96611151e-01, 3.22007060e-01 ]
      - [ 4.15893421e-02, 3.60240005e-02, 4.82026488e-02, 4.36593071e-02,
          4.36076708e-02, 6.16210252e-02, 4.56717648e-02, 3.99183556e-02,
          4.76293489e-02, 3.90170030e-02, 0., 1.31530687e-02,
          2.59267166e-02, 1.36446897e-02, 2.05860306e-02, 2.75718980e-02,
          6.26188144e-02, 3.75137515e-02, 4.21593897e-02, 2.21755169e-02,
          2.61460487e-02, 8.98627006e-03, 2.14490574e-02, 2.87056919e-02,
          4.49012816e-02, 3.07095870e-02, 2.23856680e-02, 7.23933503e-02,
          8.28199610e-02, 5.62881902e-02, 6.62482083e-02, 1.23242207e-01,
          1.71749488e-01, 1.22312255e-01, 4.98129204e-02, 8.65831599e-02,
          9.82468948e-02, 9.12228301e-02, 1.11543432e-01, 2.10560814e-01,
          2.15121225e-01, 8.35828558e-02, 4.95091155e-02, 7.10007846e-02,
          1.53823033e-01, 1.12344116e-01, 1.07350081e-01, 1.97332799e-01,
          2.00553924e-01, 1.18917093e-01, 1.10125072e-01, 1.21040732e-01,
          1.21845774e-01, 1.57508746e-01, 2.22929597e-01, 3.41497391e-01,
          2.27453575e-01, 1.70672446e-01, 1.62785873e-01, 1.77074179e-01,
          1.82474151e-01, 2.01720893e-01, 2.04366058e-01, 3.33359301e-01 ]
      - [ 2.65165605e-02, 5.23831025e-02, 3.09261717e-02, 3.93688492e-02,
          5.37256412e-02, 3.56550403e-02, 3.77239287e-02, 5.36472071e-03,
          6.95249252e-03, 0., 0., 5.72062060e-02, 4.23865914e-02,
          8.68480280e-03, 0., 1.16952900e-02, 5.19639328e-02,
          3.91090699e-02, 4.55377661e-02, 3.29172947e-02, 5.98970540e-02,
          3.14953886e-02, 4.70369458e-02, 4.13667485e-02, 3.71176563e-02,
          4.02375571e-02, 5.94532825e-02, 5.79382293e-02, 5.93766533e-02,
          3.46790180e-02, 5.81992865e-02, 1.36557445e-01, 1.28420472e-01,
          1.11879818e-01, 1.06100596e-01, 1.68364882e-01, 1.52917534e-01,
          1.29323602e-01, 1.22901067e-01, 1.52427852e-01, 1.09873556e-01,
          8.15762430e-02, 8.77471343e-02, 1.57882422e-01, 1.20089903e-01,
          7.25709274e-02, 7.57624879e-02, 1.25665486e-01, 1.49288818e-01,
          1.25178635e-01, 1.11730486e-01, 2.21488282e-01, 2.10260317e-01,
          1.52637944e-01, 2.12505728e-01, 3.05950254e-01, 2.04468831e-01,
          1.67647928e-01, 1.40765935e-01, 2.75282532e-01, 2.13383093e-01,
          1.67116344e-01, 2.18965441e-01, 3.13443989e-01 ]
      - [ 1.01989850e-01, 5.34235761e-02, 2.30532717e-02, 3.88357602e-02,
          2.20886115e-02, 7.94212148e-03, 0., 1.13050025e-02,
          1.13002760e-02, 4.49338928e-03, 0., 8.38258583e-03,
          2.60841902e-02, 3.71941850e-02, 3.22545841e-02, 3.74522209e-02,
          8.52412954e-02, 5.55784553e-02, 4.08356860e-02, 4.84375879e-02,
          7.82696605e-02, 1.18439468e-02, 1.03251711e-02, 0.,
          2.43088771e-02, 4.10291180e-02, 3.71003933e-02, 5.82895018e-02,
          1.16356306e-01, 3.22990790e-02, 2.45080143e-02, 2.20490638e-02,
          1.30917415e-01, 1.57147586e-01, 1.21647485e-01, 1.47516921e-01,
          1.55324236e-01, 1.14255846e-01, 9.98537466e-02, 1.05575874e-01,
          1.46423817e-01, 1.42884389e-01, 1.27346799e-01, 8.49771351e-02,
          8.96919742e-02, 9.35009867e-02, 9.65926647e-02, 6.85554147e-02,
          2.41643980e-01, 2.26037294e-01, 2.11542383e-01, 1.80490494e-01,
          2.28636876e-01, 1.30228952e-01, 1.22142591e-01, 1.39432356e-01,
          2.89871395e-01, 2.95564830e-01, 2.33965814e-01, 1.72530547e-01,
          2.42356911e-01, 1.77237153e-01, 1.89877614e-01, 1.74752504e-01 ]
      - [ 2.84991208e-02, 3.85478586e-02, 2.72804573e-02, 4.12224568e-02,
          3.34547795e-02, 1.87062453e-02, 2.74978075e-02, 2.35954653e-02,
          1.64957307e-02, 0., 7.66759040e-03, 0., 9.48117673e-03,
          1.26621425e-02, 3.51112932e-02, 1.21046975e-02, 9.01848450e-02,
          6.41599000e-02, 3.73973288e-02, 1.65684726e-02, 1.31770913e-02,
          2.00039633e-02, 3.53482664e-02, 6.32708445e-02, 4.86380048e-02,
          1.47978831e-02, 1.64305363e-02, 1.06703937e-02, 6.60762116e-02,
          4.83117588e-02, 4.85668257e-02, 1.66719988e-01, 1.80296451e-01,
          1.34773925e-01, 8.81647915e-02, 8.76677781e-02, 9.20292661e-02,
          1.28086597e-01, 1.57855570e-01, 2.10220873e-01, 1.59901023e-01,
          9.52917188e-02, 7.40765184e-02, 7.36623928e-02, 8.64739418e-02,
          9.78219509e-02, 1.24496810e-01, 1.41686082e-01, 2.42596641e-01,
          2.03565508e-01, 1.13162123e-01, 1.13554604e-01, 1.48730293e-01,
          1.51588678e-01, 1.58640265e-01, 3.40197235e-01, 2.98345387e-01,
          2.00848281e-01, 1.28310770e-01, 1.08016759e-01, 1.70349151e-01,
          1.89833283e-01, 2.26033390e-01, 2.94996023e-01 ]
      - [ 3.30695286e-02, 2.66528483e-02, 1.93890017e-02, 3.98927480e-02,
          3.25062312e-02, 1.16905384e-02, 1.25633869e-02, 1.09255109e-02,
          9.72673483e-03, 0., 0., 0., 0., 0., 0., 0., 5.12383096e-02,
          1.59282815e-02, 7.99894333e-03, 5.36352629e-03, 1.37001667e-02,
          0., 7.23839737e-03, 3.24574038e-02, 5.61542846e-02,
          3.96143831e-03, 2.85248179e-03, 0., 1.36959655e-02, 0.,
          1.19207958e-02, 2.58602984e-02, 2.15937153e-01, 1.60990059e-01,
          1.34325415e-01, 1.15293533e-01, 1.31613582e-01, 1.29398406e-01,
          1.26311988e-01, 1.69537291e-01, 1.47756889e-01, 8.64909291e-02,
          5.76444492e-02, 6.19728528e-02, 5.65318465e-02, 4.88033369e-02,
          6.40089288e-02, 8.11600089e-02, 4.39488560e-01, 2.03388989e-01,
          1.40908599e-01, 2.10613683e-01, 1.62307888e-01, 1.37863517e-01,
          1.49592862e-01, 3.30844015e-01, 3.89530450e-01, 1.38275653e-01,
          9.40320566e-02, 7.04437494e-02, 8.78897607e-02, 9.15276557e-02,
          1.13668345e-01, 2.47468352e-01 ]
      - [ 1.36313796e-01, 0., 0., 0., 1.85341462e-02, 0., 5.15983719e-03,
          3.52460444e-02, 7.40915090e-02, 2.83748545e-02, 0., 0.,
          5.24707651e-03, 6.67666970e-03, 7.97046255e-03, 2.30053328e-02,
          2.11375833e-01, 1.29765049e-02, 0., 1.38626564e-02,
          9.95346811e-03, 1.06476331e-02, 3.69009934e-02, 6.47518858e-02,
          9.68889147e-02, 4.62361500e-02, 1.76919270e-02, 1.03586214e-02,
          1.85842067e-02, 2.88892770e-03, 1.37652867e-02, 6.31964356e-02,
          1.11933134e-01, 1.16232321e-01, 1.23167150e-01, 1.31259233e-01,
          1.62324548e-01, 1.08808063e-01, 1.12624221e-01, 1.12612784e-01,
          1.34450436e-01, 1.06015861e-01, 8.62414762e-02, 2.32477337e-01,
          2.42809862e-01, 8.26370493e-02, 7.86676705e-02, 9.63133350e-02,
          3.32606554e-01, 1.84513137e-01, 1.23582184e-01, 1.97967172e-01,
          1.93803564e-01, 1.16401039e-01, 1.25102893e-01, 2.14962095e-01,
          3.70743096e-01, 1.99043661e-01, 1.08735472e-01, 1.38890594e-01,
          1.16151027e-01, 1.06851362e-01, 1.38071269e-01, 2.17382595e-01 ]
      - [ 1.73036516e-01, 4.22784798e-02, 1.23841530e-02, 3.58123216e-03,
          2.53231358e-03, 0., 1.69346004e-03, 5.36757847e-03,
          1.04062734e-02, 1.07132783e-02, 1.77572425e-02, 1.02340179e-02,
          9.70252138e-03, 1.02687702e-02, 7.25010084e-03, 0.,
          1.23813294e-01, 3.87206376e-02, 1.05698174e-02, 1.01212161e-02,
          5.72881699e-02, 1.81559380e-02, 1.27416085e-02, 1.35741252e-02,
          2.40259133e-02, 2.18433347e-02, 1.80093367e-02, 2.20419765e-02,
          3.79616134e-02, 1.41561413e-02, 4.49556150e-02, 4.19278257e-02,
          1.19761713e-01, 1.82739109e-01, 1.54030979e-01, 1.30632922e-01,
          1.68077096e-01, 1.04066633e-01, 1.17538065e-01, 1.35473549e-01,
          1.67087376e-01, 8.43371451e-02, 8.84152874e-02, 5.71321771e-02,
          4.48031388e-02, 5.64920604e-02, 6.17102869e-02, 6.13357574e-02,
          3.43031168e-01, 3.09426278e-01, 1.55101657e-01, 1.27929345e-01,
          1.68689117e-01, 1.20999090e-01, 1.16046242e-01, 1.53423071e-01,
          4.25580442e-01, 2.75167584e-01, 1.69949099e-01, 1.36138916e-01,
          1.67528108e-01, 1.22704089e-01, 1.25040889e-01, 1.52575731e-01 ]
      - [ 1.31507903e-01, 1.35144321e-02, 3.05374973e-02, 2.60898508e-02,
          2.97269300e-02, 0., 3.43521568e-03, 2.30619796e-02,
          6.92341477e-02, 2.12453809e-02, 8.87245871e-03, 1.61661003e-02,
          1.14579564e-02, 3.40656713e-02, 3.85897793e-02, 3.18699069e-02,
          1.06948957e-01, 3.87260318e-02, 2.24601291e-02, 3.83852348e-02,
          9.98497456e-02, 2.59952433e-02, 2.08860133e-02, 3.01332083e-02,
          1.03212506e-01, 2.15321109e-02, 2.40605641e-02, 2.92190854e-02,
          1.51845351e-01, 3.90746668e-02, 2.34772135e-02, 2.74721738e-02,
          1.67768270e-01, 1.82297140e-01, 1.36912525e-01, 8.53408650e-02,
          1.29026562e-01, 8.44339430e-02, 8.59737769e-02, 1.06263578e-01,
          1.68215066e-01, 1.83069244e-01, 9.88936275e-02, 5.11466973e-02,
          1.25515059e-01, 7.66567737e-02, 6.92233965e-02, 8.68863761e-02,
          2.80844778e-01, 2.14433253e-01, 1.19079389e-01, 1.34545103e-01,
          3.07279378e-01, 1.16630293e-01, 1.38554648e-01, 1.87375352e-01,
          3.13449681e-01, 2.37410218e-01, 1.60800919e-01, 1.53162599e-01,
          2.51706690e-01, 1.49445027e-01, 1.53064921e-01, 1.84917837e-01 ]
      - [ 1.43984035e-01, 4.66423072e-02, 3.25999856e-02, 1.19855646e-02,
          2.06567515e-02, 1.51674803e-02, 1.73864514e-02, 3.69333588e-02,
          6.31708652e-02, 1.87293794e-02, 1.27865309e-02, 0., 0.,
          4.47955634e-03, 2.40323823e-02, 2.95137614e-02, 1.09208800e-01,
          2.79812515e-02, 1.41502535e-02, 1.09130442e-02, 5.48706204e-02,
          3.65844481e-02, 1.01477429e-02, 3.12840566e-02, 6.85102642e-02,
          2.84247696e-02, 2.73048859e-02, 5.66794649e-02, 8.52244124e-02,
          5.62952347e-02, 6.03382215e-02, 9.57262963e-02, 1.67156607e-01,
          1.57589376e-01, 1.08924970e-01, 1.48345158e-01, 1.55081332e-01,
          1.18230186e-01, 1.38813779e-01, 1.55193791e-01, 1.19499855e-01,
          8.22473019e-02, 6.50761724e-02, 8.57455283e-02, 1.16033904e-01,
          6.21006563e-02, 5.20136133e-02, 1.10940471e-01, 2.68116981e-01,
          1.39564961e-01, 7.59050176e-02, 1.83977902e-01, 2.38821983e-01,
          8.67703781e-02, 1.17745265e-01, 2.11851284e-01, 2.98744738e-01,
          1.68202251e-01, 1.35803789e-01, 2.63937026e-01, 3.60581756e-01,
          1.46052018e-01, 1.60298452e-01, 2.15551019e-01 ]
      - [ 3.31339873e-02, 3.02436892e-02, 3.64446007e-02, 2.45683119e-02,
          3.72272544e-02, 3.77990007e-02, 3.33126374e-02, 6.69076517e-02,
          3.64216268e-02, 1.01149110e-02, 1.29698450e-02, 0.,
          2.05609873e-02, 2.93722842e-02, 2.66260412e-02, 1.08593665e-02,
          7.99623653e-02, 4.92623299e-02, 5.77260442e-02, 4.10517976e-02,
          3.93717065e-02, 2.69378219e-02, 3.12596075e-02, 8.37427005e-02,
          5.89523092e-02, 1.95262097e-02, 3.07442136e-02, 2.92316899e-02,
          5.41163571e-02, 3.56093049e-02, 3.46531533e-02, 1.43804953e-01,
          1.38126090e-01, 1.32305399e-01, 1.15576543e-01, 1.40865088e-01,
          1.66496336e-01, 1.40370578e-01, 1.55212879e-01, 1.85197428e-01,
          1.41711712e-01, 6.76643327e-02, 6.33278713e-02, 9.29504111e-02,
          9.51640308e-02, 7.28989840e-02, 1.00365311e-01, 1.64666921e-01,
          2.09929660e-01, 1.06779486e-01, 1.14782199e-01, 2.10825324e-01,
          1.85678706e-01, 1.23470262e-01, 1.19020931e-01, 3.85305613e-01,
          2.05256060e-01, 1.12738810e-01, 1.27742678e-01, 2.88127571e-01,
          1.68658584e-01, 9.18638930e-02, 1.27769947e-01, 3.61678004e-01 ]
      - [ 3.85776237e-02, 2.44886521e-02, 1.84332244e-02, 1.98619924e-02,
          4.44384664e-02, 0., 6.03379449e-03, 1.45908101e-02,
          1.87567677e-02, 4.39305510e-03, 0., 2.59969919e-03, 0., 0., 0.,
          0., 2.07445212e-02, 0., 8.98050144e-03, 1.17432019e-02,
          1.35552749e-01, 4.07888927e-02, 2.48488672e-02, 2.15242989e-02,
          2.15793550e-02, 1.33617874e-02, 1.38379736e-02, 3.68787050e-02,
          1.12523280e-01, 0., 0., 0., 1.48739010e-01, 1.46568924e-01,
          1.31661341e-01, 1.63666859e-01, 1.50140420e-01, 1.35683686e-01,
          1.23668574e-01, 1.45949379e-01, 1.15727603e-01, 9.32922363e-02,
          5.35251610e-02, 5.32437600e-02, 4.42077667e-02, 2.95750536e-02,
          3.86003070e-02, 6.31438792e-02, 2.18397483e-01, 1.14481658e-01,
          9.38708931e-02, 2.18308747e-01, 4.48311716e-01, 1.90393776e-01,
          1.38598934e-01, 2.07169861e-01, 1.99378029e-01, 1.26734450e-01,
          1.32526964e-01, 2.46929064e-01, 3.61118793e-01, 1.62985697e-01,
          1.42961666e-01, 1.67861953e-01 ]
      - [ 8.75405371e-02, 7.52438754e-02, 3.89016755e-02, 3.20151150e-02,
          1.94431134e-02, 2.20612437e-02, 1.58615429e-02, 1.40243210e-02,
          1.15031777e-02, 1.55106047e-02, 0., 0., 9.77728888e-03,
          1.43581899e-02, 3.55866998e-02, 1.97626948e-02, 6.32577613e-02,
          8.28514844e-02, 5.23335859e-02, 4.71178293e-02, 6.66737109e-02,
          1.15863094e-02, 3.28718387e-02, 2.66052503e-02, 4.25989740e-02,
          4.87155691e-02, 6.77250102e-02, 8.34704861e-02, 7.06005916e-02,
          6.28261715e-02, 4.85901684e-02, 4.73357290e-02, 1.31828323e-01,
          1.45991847e-01, 1.72497109e-01, 1.67650193e-01, 1.83007047e-01,
          1.34607062e-01, 1.26591161e-01, 1.42091170e-01, 1.41856313e-01,
          8.43106657e-02, 9.49546322e-02, 8.99379253e-02, 7.47536793e-02,
          6.38651326e-02, 7.46790692e-02, 8.89025778e-02, 2.90483981e-01,
          2.54508793e-01, 2.30763331e-01, 1.30799979e-01, 1.24644935e-01,
          1.01646014e-01, 1.09093286e-01, 1.46445438e-01, 2.91740954e-01,
          3.59958768e-01, 2.33596668e-01, 1.46686018e-01, 1.28176257e-01,
          1.73657894e-01, 1.66759640e-01, 1.82388246e-01 ]
      - [ 6.07545301e-02, 3.25140879e-02, 3.14567499e-02, 1.61982570e-02,
          3.15528624e-02, 3.70183364e-02, 2.62456592e-02, 2.54132673e-02,
          1.65568236e-02, 2.07783915e-02, 1.63140520e-02, 7.44137727e-03,
          1.67410262e-02, 2.97982115e-02, 3.25705186e-02, 3.30532491e-02,
          7.64370337e-02, 3.98979448e-02, 3.45104970e-02, 8.40783585e-03,
          3.03278603e-02, 0., 2.64957305e-02, 5.63278385e-02,
          3.49380821e-02, 2.46870443e-02, 1.84893385e-02, 3.37477699e-02,
          3.70787792e-02, 4.61721718e-02, 5.91264218e-02, 1.36574358e-01,
          1.41170546e-01, 9.60875601e-02, 7.68937171e-02, 1.65885836e-01,
          1.15517862e-01, 1.17372036e-01, 1.61097407e-01, 1.97639227e-01,
          1.23282418e-01, 5.73473535e-02, 6.70639426e-02, 1.35298118e-01,
          1.17729247e-01, 9.74395499e-02, 9.91972089e-02, 1.79743856e-01,
          2.14658707e-01, 8.06902200e-02, 8.16092342e-02, 1.23450480e-01,
          1.51547164e-01, 1.59399748e-01, 2.36012205e-01, 3.80156457e-01,
          2.22304389e-01, 1.32055163e-01, 1.09595411e-01, 1.74096361e-01,
          1.64834037e-01, 1.81651130e-01, 2.59274423e-01, 3.49741757e-01 ]
      - [ 2.27598399e-02, 7.73946419e-02, 2.99083069e-02, 1.23909032e-02,
          0., 0., 0., 0., 0., 0., 0., 0., 0., 0., 0., 0., 4.71555330e-02,
          1.05933592e-01, 4.71153185e-02, 5.62961474e-02, 9.14474055e-02,
          1.29001224e-02, 1.56670772e-02, 2.04499029e-02, 3.95685993e-02,
          3.36124524e-02, 1.27580222e-02, 4.23135385e-02, 1.42268449e-01,
          2.00806968e-02, 1.53739639e-02, 1.87121984e-02, 6.63198680e-02,
          1.41611129e-01, 1.55871347e-01, 1.71637997e-01, 2.17534631e-01,
          9.91765186e-02, 8.85107741e-02, 6.41568378e-02, 1.18416071e-01,
          7.36363828e-02, 9.39567164e-02, 1.09241553e-01, 1.34179205e-01,
          6.18320443e-02, 3.51350717e-02, 4.12282497e-02, 1.53101474e-01,
          2.96125323e-01, 2.18031630e-01, 2.31532425e-01, 2.79469967e-01,
          9.77033302e-02, 9.89157110e-02, 1.00151904e-01, 1.93817422e-01,
          2.90693849e-01, 2.51075149e-01, 2.69708067e-01, 3.52844030e-01,
          9.46964994e-02, 9.11018103e-02, 8.30680206e-02 ]
      - [ 2.86908764e-02, 3.81120085e-03, 8.93600564e-03, 1.81143358e-02,
          5.45237698e-02, 3.86855975e-02, 4.83627506e-02, 2.00273860e-02,
          5.23345778e-03, 5.20251924e-03, 8.90504569e-03, 1.03552593e-02,
          2.83627398e-02, 3.20653692e-02, 3.99882011e-02, 0.,
          2.62952931e-02, 2.95141414e-02, 1.00624627e-02, 2.84180064e-02,
          5.48371226e-02, 4.40965109e-02, 2.48878449e-02, 2.00924724e-02,
          1.54066132e-02, 2.35914849e-02, 1.40281180e-02, 3.16326469e-02,
          7.75025338e-02, 6.24250248e-02, 9.06057358e-02, 3.76089476e-02,
          6.47450984e-02, 4.35788184e-02, 4.76460569e-02, 8.98681059e-02,
          1.47825912e-01, 1.60328165e-01, 1.24760702e-01, 6.15807809e-02,
          7.54882023e-02, 4.41546366e-02, 3.76500264e-02, 1.80103675e-01,
          3.67249817e-01, 1.12623595e-01, 9.39713120e-02, 6.23234548e-02,
          9.42910463e-02, 6.57807738e-02, 5.40555790e-02, 1.17065646e-01,
          3.57596695e-01, 3.47261548e-01, 2.18355805e-01, 1.17859468e-01,
          8.77276808e-02, 6.43168688e-02, 8.86582583e-02, 1.66418716e-01,
          3.12794894e-01, 3.47429335e-01, 2.34293953e-01, 1.09864958e-01 ]
      - [ 7.65527040e-02, 1.12570468e-02, 4.07285104e-03, 4.27885819e-03,
          6.83065504e-03, 0., 4.00865311e-03, 4.75735031e-03, 0.,
          1.01748286e-02, 0., 8.43599159e-03, 7.52692763e-03,
          8.98455456e-03, 2.03522760e-02, 6.03246875e-02, 5.86206242e-02,
          2.05125529e-02, 1.37984212e-02, 1.25836302e-02, 4.19388749e-02,
          4.13979627e-02, 6.15916662e-02, 1.79146752e-02, 3.29223312e-02,
          2.14222409e-02, 7.45476363e-03, 1.78629402e-02, 2.90661026e-02,
          2.33987980e-02, 3.17129828e-02, 5.82732968e-02, 1.54186979e-01,
          1.34611577e-01, 1.18892506e-01, 1.73660800e-01, 1.95186049e-01,
          1.38316974e-01, 1.41821787e-01, 1.32807314e-01, 1.36108965e-01,
          8.88253823e-02, 1.02224126e-01, 1.31482765e-01, 2.23058343e-01,
          9.39594805e-02, 6.04679994e-02, 1.00660987e-01, 2.84290314e-01,
          1.34980917e-01, 1.28228635e-01, 1.47587135e-01, 1.88258022e-01,
          1.36782899e-01, 1.28149599e-01, 2.49848455e-01, 2.91372091e-01,
          1.91029623e-01, 1.51840836e-01, 2.07664177e-01, 2.95001149e-01,
          1.92158341e-01, 1.73029125e-01, 2.24960685e-01 ]
      - [ 8.32904354e-02, 5.94151653e-02, 3.19649093e-02, 3.46096195e-02,
          6.05202243e-02, 0., 0., 0., 2.86040199e-03, 3.93237472e-02,
          2.84444410e-02, 2.65992377e-02, 1.37128523e-02, 1.47041362e-02,
          0., 0., 9.59469453e-02, 1.38702378e-01, 3.49226780e-02,
          1.84391476e-02, 9.31240842e-02, 2.48377621e-02, 1.72667466e-02,
          2.37277932e-02, 3.38816792e-02, 1.03519320e-01, 4.35707830e-02,
          3.72450948e-02, 5.88906854e-02, 2.05204878e-02, 2.86689512e-02,
          1.46329887e-02, 6.19972385e-02, 1.29550055e-01, 8.61732587e-02,
          1.27186120e-01, 2.71097749e-01, 7.08556101e-02, 5.44419847e-02,
          5.74494191e-02, 8.06295946e-02, 8.89462829e-02, 5.99349700e-02,
          1.21520586e-01, 1.01767831e-01, 4.54296581e-02, 4.36114706e-02,
          4.48409021e-02, 1.98802918e-01, 3.89952421e-01, 2.18591020e-01,
          1.88561216e-01, 1.90202683e-01, 1.09727748e-01, 1.05197355e-01,
          1.17925361e-01, 2.39903137e-01, 3.88650864e-01, 2.43553951e-01,
          2.07994789e-01, 1.96679294e-01, 1.33289263e-01, 1.14924662e-01,
          1.13489054e-01 ]
      - [ 6.45252839e-02, 3.98795530e-02, 1.51715763e-02, 9.61108506e-03,
          1.36062959e-02, 0., 6.29366934e-03, 7.85764866e-03,
          6.56647841e-03, 1.18836369e-02, 9.47088655e-03, 2.38916511e-03,
          7.01405341e-03, 7.52156181e-03, 7.01533305e-03, 5.69942268e-03,
          9.28564221e-02, 9.48602632e-02, 2.36847643e-02, 6.33366406e-02,
          7.11570382e-02, 5.05732046e-03, 1.86311491e-02, 2.39463951e-02,
          3.75460796e-02, 2.97704898e-02, 2.53668837e-02, 1.99577753e-02,
          8.25359821e-02, 4.61820476e-02, 2.45022848e-02, 2.52286494e-02,
          5.56409955e-02, 1.02685019e-01, 1.04091518e-01, 1.91850126e-01,
          2.28122175e-01, 8.27749819e-02, 5.18728979e-02, 6.18163683e-02,
          7.44450092e-02, 5.26035726e-02, 5.68018779e-02, 5.66386543e-02,
          6.24187365e-02, 3.58803757e-02, 2.62218453e-02, 2.22758316e-02,
          2.32222453e-01, 2.49581814e-01, 2.32488796e-01, 2.61057317e-01,
          3.35582197e-01, 1.12313837e-01, 9.94412675e-02, 1.27962679e-01,
          2.61934429e-01, 2.64415354e-01, 2.27956936e-01, 2.51704544e-01,
          3.47451955e-01, 1.19821787e-01, 9.58146527e-02, 1.25031695e-01 ]
      - [ 1.14210367e-01, 2.78253090e-02, 1.67080443e-02, 1.58013906e-02,
          4.04936969e-02, 1.84637364e-02, 1.78907122e-02, 1.61056630e-02,
          2.89953146e-02, 1.15495054e-02, 0., 8.14975426e-03, 0.,
          3.21456455e-02, 4.08555493e-02, 3.66335623e-02, 1.11269847e-01,
          7.67060816e-02, 5.42945452e-02, 3.00420374e-02, 3.05103939e-02,
          1.66604351e-02, 2.23725699e-02, 2.70303246e-02, 6.04574271e-02,
          3.44977751e-02, 4.84346338e-02, 5.69120161e-02, 5.98909631e-02,
          4.48540784e-02, 4.46651988e-02, 6.10020347e-02, 1.62147805e-01,
          1.56654239e-01, 1.45811811e-01, 1.43943176e-01, 1.17246568e-01,
          1.18625708e-01, 1.42120183e-01, 1.32158145e-01, 1.59397319e-01,
          9.19033661e-02, 9.61781591e-02, 9.51580405e-02, 8.04290995e-02,
          8.25471804e-02, 7.85223916e-02, 9.22560394e-02, 3.11278760e-01,
          3.97300810e-01, 1.09009877e-01, 1.35083437e-01, 1.81722477e-01,
          1.23126358e-01, 1.13682859e-01, 1.40035734e-01, 3.47576827e-01,
          3.50485891e-01, 1.35821611e-01, 1.11116305e-01, 1.23036653e-01,
          1.00918762e-01, 1.01396099e-01, 1.32870629e-01 ]
      - [ 1.43233370e-02, 1.69373769e-02, 1.07690869e-02, 6.23626867e-03,
          1.61185414e-02, 1.10832797e-02, 1.01018315e-02, 3.13343368e-02,
          9.79170874e-02, 6.64142296e-02, 4.29132320e-02, 2.07232945e-02,
          2.02813223e-02, 1.11730564e-02, 2.11744104e-02, 8.95410217e-03,
          6.52651414e-02, 3.33133377e-02, 2.65050102e-02, 2.41376441e-02,
          4.77395281e-02, 1.87052414e-02, 1.20008653e-02, 4.12942655e-02,
          7.15248734e-02, 7.89908320e-02, 1.13917375e-02, 5.34472615e-02,
          7.49139711e-02, 4.50927056e-02, 4.42548059e-02, 9.06073600e-02,
          7.01596811e-02, 7.98615143e-02, 7.79696703e-02, 1.25572771e-01,
          1.56816497e-01, 8.40950981e-02, 8.54528323e-02, 1.26616076e-01,
          8.86138603e-02, 4.01609391e-02, 5.76086491e-02, 1.83289021e-01,
          4.06236053e-01, 6.41661286e-02, 5.31114973e-02, 3.37974839e-02,
          1.94595411e-01, 2.19248265e-01, 1.63528726e-01, 1.89753443e-01,
          2.37233803e-01, 1.46536663e-01, 1.31562561e-01, 1.64892882e-01,
          1.91067278e-01, 2.24087954e-01, 2.05923304e-01, 2.62470603e-01,
          3.02082241e-01, 1.73872769e-01, 1.41939878e-01, 1.38005883e-01 ]
      - [ 8.36644396e-02, 7.02691749e-02, 4.12974656e-02, 1.71784107e-02,
          1.35462983e-02, 9.12286993e-03, 1.15913479e-02, 0.,
          1.73015036e-02, 0., 6.01689145e-03, 9.26836021e-03,
          1.77635271e-02, 1.46471467e-02, 0., 2.22120117e-02,
          9.32146311e-02, 4.56631482e-02, 3.76140960e-02, 3.38349529e-02,
          6.76669925e-02, 1.68765094e-02, 2.21780948e-02, 2.40212474e-02,
          3.62325571e-02, 3.48569714e-02, 3.04906331e-02, 9.02011022e-02,
          8.95865038e-02, 2.98937224e-02, 2.31083632e-02, 2.58501712e-02,
          1.04659043e-01, 1.38561204e-01, 1.51749238e-01, 1.85765192e-01,
          2.07029730e-01, 1.13122471e-01, 1.05752021e-01, 8.11537951e-02,
          1.32162645e-01, 8.44574720e-02, 1.03336550e-01, 1.39108077e-01,
          1.78716794e-01, 7.29122683e-02, 6.64647445e-02, 5.89789487e-02,
          2.40816176e-01, 2.23396674e-01, 2.07453236e-01, 1.69492200e-01,
          2.47998863e-01, 1.20144576e-01, 1.15402691e-01, 1.21354386e-01,
          2.59538770e-01, 2.65176862e-01, 2.30219766e-01, 1.97637796e-01,
          3.20474476e-01, 1.62131757e-01, 1.46142334e-01, 1.36385605e-01 ]
      - [ 6.28227219e-02, 1.20728360e-02, 3.66661022e-03, 0.,
          7.05994898e-03, 3.35034076e-03, 3.67645430e-03, 2.87273806e-03,
          7.77475443e-03, 3.06748087e-03, 8.76094121e-03, 1.00551844e-02,
          6.76773163e-03, 8.86108913e-03, 1.35321869e-02, 4.89992425e-02,
          4.25290391e-02, 2.32822467e-02, 2.87026092e-02, 5.89293912e-02,
          1.01094425e-01, 1.43178990e-02, 5.26993163e-03, 0.,
          8.16687942e-03, 3.32747004e-03, 2.41567520e-03, 2.03133258e-03,
          1.16142593e-01, 1.04213534e-02, 3.13186496e-02, 4.28419225e-02,
          1.55629054e-01, 1.14397883e-01, 1.22117966e-01, 1.47469431e-01,
          1.71166465e-01, 1.36044011e-01, 1.35891274e-01, 1.63020864e-01,
          1.35983035e-01, 7.78915063e-02, 1.04356207e-01, 1.17641002e-01,
          1.09314770e-01, 9.97018740e-02, 8.96046907e-02, 1.56372547e-01,
          1.72692016e-01, 2.12462813e-01, 1.14146441e-01, 1.85963064e-01,
          3.56020182e-01, 1.18740842e-01, 1.45743221e-01, 2.13275239e-01,
          2.15013146e-01, 2.03500345e-01, 1.31783217e-01, 2.18182057e-01,
          3.39431792e-01, 1.75914451e-01, 1.52949765e-01, 1.90943480e-01 ]
      - [ 3.55092958e-02, 4.52121273e-02, 2.25597322e-02, 3.62029001e-02,
          3.19338292e-02, 4.34704162e-02, 1.67240445e-02, 1.31173087e-02,
          2.36230739e-03, 1.53039452e-02, 4.89924708e-03, 4.25181948e-02,
          1.13275595e-01, 0., 3.97291128e-03, 0., 6.76217750e-02,
          3.06383185e-02, 1.93535052e-02, 2.11909041e-02, 4.98945490e-02,
          5.75029291e-02, 6.47762343e-02, 5.47474064e-02, 3.73037532e-02,
          3.62555720e-02, 4.38056439e-02, 5.98751158e-02, 7.68152773e-02,
          6.33504093e-02, 6.27942234e-02, 9.85208526e-02, 4.62641157e-02,
          4.60890569e-02, 4.39632945e-02, 3.65233645e-02, 9.17866230e-02,
          6.48833737e-02, 5.84147610e-02, 1.36660144e-01, 8.87367800e-02,
          4.81219403e-02, 7.31088445e-02, 2.57888645e-01, 3.50526422e-01,
          1.11682288e-01, 8.14819485e-02, 5.40544353e-02, 1.87019378e-01,
          1.29995614e-01, 1.09797373e-01, 1.65926903e-01, 2.31426015e-01,
          2.09521070e-01, 2.57720947e-01, 2.11449414e-01, 1.73473969e-01,
          1.59897998e-01, 1.37610272e-01, 2.06291437e-01, 2.65993834e-01,
          2.12558582e-01, 2.58154899e-01, 2.37734318e-01 ]
      - [ 4.05488536e-02, 1.07886523e-01, 0., 0., 4.34999634e-03, 0.,
          7.09257647e-03, 0., 8.56444519e-03, 1.34768439e-02, 0., 0., 0.,
          0., 0., 1.83561873e-02, 6.36804327e-02, 1.22869954e-01,
          3.85057814e-02, 3.00694164e-02, 4.48465645e-02, 3.39074396e-02,
          4.03049998e-02, 1.63487867e-02, 3.90118919e-02, 4.22735475e-02,
          3.25714499e-02, 6.66972250e-02, 1.05998650e-01, 4.51292582e-02,
          2.32704096e-02, 2.39056367e-02, 9.37058553e-02, 1.19948424e-01,
          1.31795183e-01, 2.38498941e-01, 2.58319825e-01, 9.29737613e-02,
          7.62340277e-02, 5.69514036e-02, 9.78653356e-02, 8.87422040e-02,
          1.06431790e-01, 1.02648251e-01, 1.13732420e-01, 5.01733944e-02,
          3.57313529e-02, 5.35440892e-02, 1.92731515e-01, 2.87089169e-01,
          1.91246971e-01, 1.64558470e-01, 1.42523512e-01, 1.07925244e-01,
          9.00678709e-02, 1.30405426e-01, 1.82610482e-01, 3.51877213e-01,
          2.24287271e-01, 2.65791535e-01, 3.58742356e-01, 1.33036882e-01,
          1.20023921e-01, 1.27607852e-01 ]
      - [ 0., 5.39178513e-02, 0., 0., 0., 0., 0., 0., 0., 0., 0., 0., 0.,
          0., 0., 0., 9.82573330e-02, 9.96286720e-02, 3.16116661e-02,
          1.12660397e-02, 2.62706298e-02, 5.86145325e-03, 9.78667848e-03,
          8.27515963e-03, 1.61662307e-02, 1.57940630e-02, 1.45547995e-02,
          4.72282246e-02, 7.04133958e-02, 5.14988527e-02, 2.96728965e-02,
          3.74722108e-02, 4.68209349e-02, 7.86296874e-02, 1.12101361e-01,
          2.34228104e-01, 2.79888391e-01, 8.98701996e-02, 6.24520555e-02,
          2.82520596e-02, 6.15299121e-02, 3.88070419e-02, 8.25749710e-02,
          1.58735111e-01, 2.03087300e-01, 7.92863220e-02, 4.13049310e-02,
          3.57066207e-02, 1.76604912e-01, 2.50724792e-01, 2.12810919e-01,
          2.54194379e-01, 2.73856133e-01, 1.24146983e-01, 1.08746320e-01,
          1.26289591e-01, 2.01008782e-01, 2.88739920e-01, 2.33442992e-01,
          2.55898178e-01, 2.93235719e-01, 1.60746634e-01, 1.18435927e-01,
          1.27140433e-01 ]
      - [ 1.32244721e-01, 3.47908884e-02, 2.44700760e-02, 9.92805511e-03,
          3.05668935e-02, 0., 1.94562376e-02, 4.85459603e-02,
          8.14699475e-03, 0., 0., 0., 0., 0., 0., 5.03880233e-02,
          1.30779818e-01, 6.06181622e-02, 4.24211025e-02, 4.97128256e-02,
          5.08496575e-02, 4.31834199e-02, 4.90279198e-02, 1.27805844e-01,
          3.14165764e-02, 2.32027974e-02, 1.10041481e-02, 1.83614120e-02,
          3.52855735e-02, 1.91355720e-02, 2.28692442e-02, 1.57801419e-01,
          9.94863361e-02, 9.22032222e-02, 8.47262740e-02, 1.43457741e-01,
          1.37491465e-01, 9.64981839e-02, 1.01314567e-01, 1.53271958e-01,
          1.03810288e-01, 6.47523776e-02, 9.88318324e-02, 1.89874902e-01,
          1.24648303e-01, 8.47993046e-02, 6.83055371e-02, 1.47426024e-01,
          3.09243411e-01, 1.56988785e-01, 1.34166807e-01, 2.05284536e-01,
          1.70969471e-01, 1.49911210e-01, 1.86630607e-01, 3.70834142e-01,
          2.69008100e-01, 1.49081692e-01, 1.04389429e-01, 8.50923285e-02,
          1.15417235e-01, 1.58173725e-01, 1.70232221e-01, 3.07414621e-01 ]
      - [ 1.16742492e-01, 7.97272548e-02, 3.04477308e-02, 8.90113413e-03,
          0., 0., 7.46360375e-03, 0., 6.91594463e-03, 2.09610611e-02,
          1.79534443e-02, 1.25492318e-02, 6.56041037e-03, 1.88487321e-02,
          3.86276022e-02, 4.05097082e-02, 1.35699704e-01, 2.65892129e-02,
          1.47923073e-02, 4.28958982e-02, 7.52486661e-02, 3.58341336e-02,
          3.54948752e-02, 3.60484459e-02, 5.01285940e-02, 4.27973382e-02,
          5.34333549e-02, 4.93155867e-02, 1.16553508e-01, 4.53959778e-02,
          2.35399045e-02, 3.46436240e-02, 1.22130752e-01, 1.40306860e-01,
          1.43383458e-01, 1.46001905e-01, 2.11825132e-01, 7.52079934e-02,
          9.01506171e-02, 1.12094268e-01, 1.52187571e-01, 1.32532775e-01,
          1.25660717e-01, 5.23892678e-02, 1.78840369e-01, 9.13383663e-02,
          8.44012946e-02, 7.68446401e-02, 2.32753068e-01, 2.13449970e-01,
          2.01100767e-01, 1.59836277e-01, 1.93171307e-01, 1.32684186e-01,
          1.65461436e-01, 1.61687419e-01, 3.08141530e-01, 2.09240690e-01,
          1.94365010e-01, 1.83443964e-01, 2.99316645e-01, 1.68693841e-01,
          1.53657243e-01, 1.74467295e-01 ]
      - [ 3.50740552e-02, 3.62326242e-02, 6.25189245e-02, 4.43961732e-02,
          3.95657867e-02, 2.18006726e-02, 1.09920679e-02, 1.58290919e-02,
          1.71780959e-02, 1.28625529e-02, 1.38318278e-02, 1.20988423e-02,
          1.81425791e-02, 0., 1.31243933e-02, 4.93007638e-02,
          7.78304562e-02, 3.76881845e-02, 4.05457988e-02, 3.13159376e-02,
          4.51871008e-02, 4.42620181e-02, 5.09006530e-02, 3.83190624e-02,
          5.53449690e-02, 4.07131426e-02, 4.85241823e-02, 5.22547141e-02,
          7.68463761e-02, 4.13508713e-02, 4.87786494e-02, 1.01136796e-01,
          1.11012436e-01, 1.29812598e-01, 1.55827299e-01, 1.79769859e-01,
          1.76490605e-01, 1.23889059e-01, 1.13025159e-01, 1.27173707e-01,
          1.55760616e-01, 1.04986817e-01, 9.51659828e-02, 1.32014081e-01,
          1.19365066e-01, 7.57694021e-02, 9.04921517e-02, 9.92776081e-02,
          2.29518980e-01, 2.64406562e-01, 2.40623355e-01, 1.61628410e-01,
          1.73031032e-01, 1.29266918e-01, 1.21762916e-01, 1.90391108e-01,
          2.58358538e-01, 2.69877255e-01, 2.26555169e-01, 2.26586223e-01,
          2.06782773e-01, 1.52456120e-01, 1.61649600e-01, 1.93648368e-01 ]
      - [ 3.76113169e-02, 1.98670737e-02, 2.90703624e-02, 6.09045923e-02,
          6.17033653e-02, 0., 2.77908775e-03, 1.72461681e-02,
          4.73866090e-02, 3.34095694e-02, 2.47526523e-02, 4.39703800e-02,
          3.74424830e-02, 0., 0., 1.62016042e-02, 6.17996976e-02,
          5.01668118e-02, 3.71105038e-02, 4.00937423e-02, 3.90675142e-02,
          3.71677577e-02, 4.58434895e-02, 7.40687177e-02, 1.02827147e-01,
          3.30258943e-02, 4.59582694e-02, 5.10518365e-02, 3.83496992e-02,
          3.18988413e-02, 4.30486836e-02, 5.24210222e-02, 1.45406544e-01,
          1.05952039e-01, 9.78582799e-02, 2.20428586e-01, 1.51434287e-01,
          9.84484479e-02, 7.50179738e-02, 8.17918852e-02, 1.11448295e-01,
          1.15306787e-01, 1.13464482e-01, 2.39682481e-01, 1.73696205e-01,
          7.94845149e-02, 6.04131147e-02, 8.32448155e-02, 2.50146925e-01,
          1.60054356e-01, 1.42066613e-01, 2.86748856e-01, 2.30460107e-01,
          1.54155463e-01, 1.72766522e-01, 1.69980377e-01, 2.43325785e-01,
          1.55664906e-01, 1.91290632e-01, 2.76047081e-01, 2.19995916e-01,
          1.49122462e-01, 1.55179009e-01, 2.07161888e-01 ]
      - [ 3.56343016e-02, 6.48327544e-02, 6.11633733e-02, 4.19105254e-02,
          5.61405197e-02, 4.31953408e-02, 6.37407368e-03, 6.16707001e-03,
          1.17591815e-02, 0., 8.77870619e-03, 3.47417891e-02,
          3.19143534e-02, 5.06911427e-03, 5.95706142e-03, 6.67705340e-03,
          7.31928721e-02, 2.55644098e-02, 2.00961046e-02, 7.99118206e-02,
          5.63445278e-02, 4.01350744e-02, 1.89258382e-02, 4.77700196e-02,
          4.23674881e-02, 3.51476036e-02, 2.20040660e-02, 7.41566196e-02,
          5.88056557e-02, 3.87696959e-02, 3.31209376e-02, 8.74538571e-02,
          1.46503374e-01, 1.31797373e-01, 1.08377963e-01, 1.58026040e-01,
          1.39403388e-01, 1.23882696e-01, 1.08032390e-01, 2.31144592e-01,
          1.18044488e-01, 5.48390411e-02, 5.15061505e-02, 9.11272392e-02,
          9.46766511e-02, 7.41349459e-02, 6.39067069e-02, 1.73789382e-01,
          2.44355932e-01, 1.10975876e-01, 9.50623527e-02, 3.24626803e-01,
          2.08900839e-01, 1.11144461e-01, 1.41493067e-01, 3.20420712e-01,
          2.30002031e-01, 1.42530501e-01, 1.55413762e-01, 2.34912246e-01,
          2.22392142e-01, 1.34476036e-01, 1.50212139e-01, 2.80317307e-01 ]
      - [ 5.37350439e-02, 3.74454521e-02, 2.99771503e-02, 3.24466899e-02,
          3.78920250e-02, 3.21770310e-02, 3.97225805e-02, 7.72577450e-02,
          2.54359357e-02, 0., 0., 0., 1.15856677e-02, 5.68981236e-03, 0.,
          7.27688074e-02, 5.54829091e-02, 3.69180441e-02, 4.56447415e-02,
          6.17446750e-02, 6.98289350e-02, 5.29043004e-02, 4.26187590e-02,
          6.99203536e-02, 5.59764020e-02, 3.70800234e-02, 4.55214493e-02,
          6.50932118e-02, 6.60830736e-02, 4.95247059e-02, 4.14705202e-02,
          1.49831221e-01, 1.90778658e-01, 1.34293094e-01, 1.04308911e-01,
          1.00652799e-01, 1.03432305e-01, 1.21850677e-01, 1.53781116e-01,
          1.94875821e-01, 1.37016237e-01, 8.28662813e-02, 6.82198033e-02,
          6.42616376e-02, 6.64807111e-02, 7.36623779e-02, 9.99386385e-02,
          1.13730408e-01, 3.04778486e-01, 1.60374850e-01, 1.13154836e-01,
          9.48935449e-02, 1.21130943e-01, 1.17245555e-01, 1.94745928e-01,
          3.73462141e-01, 3.05686325e-01, 1.60836101e-01, 1.12563916e-01,
          1.00758985e-01, 1.09753467e-01, 1.30367130e-01, 2.10736960e-01,
          3.45655829e-01 ]
      - [ 5.45532554e-02, 3.37777734e-02, 9.01759975e-03, 2.87932418e-02,
          3.95437516e-02, 2.20014602e-02, 3.43208499e-02, 7.86788091e-02,
          2.81635299e-02, 0., 0., 0., 1.44535303e-02, 0., 7.19003426e-03,
          7.81977102e-02, 4.76377383e-02, 2.41339821e-02, 4.14005555e-02,
          5.49497157e-02, 7.14790598e-02, 5.20818196e-02, 4.00901921e-02,
          8.48969892e-02, 4.36861552e-02, 4.24573347e-02, 4.28619385e-02,
          5.34358211e-02, 6.77016675e-02, 4.86438870e-02, 4.08592857e-02,
          1.53069183e-01, 1.94501564e-01, 1.29347384e-01, 6.67146668e-02,
          4.14391309e-02, 5.30129001e-02, 9.18339565e-02, 1.43139198e-01,
          2.21047640e-01, 1.43798739e-01, 9.54150558e-02, 6.97187334e-02,
          8.11450332e-02, 8.66776332e-02, 9.16783884e-02, 9.97391716e-02,
          1.56045139e-01, 3.28482270e-01, 1.50946841e-01, 1.00350402e-01,
          1.05338491e-01, 9.50621665e-02, 1.07009850e-01, 1.76320165e-01,
          4.02435303e-01, 3.06584388e-01, 1.16121754e-01, 9.89998877e-02,
          9.42030549e-02, 9.96583998e-02, 1.01485901e-01, 1.51470706e-01,
          3.82406086e-01 ]
      - [ 2.98046460e-03, 0., 0., 0., 2.23994255e-02, 2.67023277e-02,
          1.20859019e-01, 2.25875191e-02, 3.97014990e-02, 1.89658776e-02,
          1.80581454e-02, 0., 3.23307840e-03, 0., 3.87639599e-03, 0.,
          4.64191101e-02, 1.01700677e-02, 9.56401508e-03, 2.57764123e-02,
          7.22080544e-02, 2.05175970e-02, 6.32904544e-02, 5.55817597e-03,
          8.13640282e-03, 1.31672714e-02, 4.23513353e-03, 7.02032819e-03,
          5.72250411e-02, 6.37157708e-02, 1.88800216e-01, 1.73152983e-02,
          9.74241272e-02, 5.45475110e-02, 7.92129114e-02, 2.40787581e-01,
          1.10903233e-01, 1.04034029e-01, 1.60266608e-01, 8.06843564e-02,
          7.74831474e-02, 4.48980518e-02, 5.45492955e-02, 1.99916869e-01,
          7.42352679e-02, 7.09338114e-02, 1.06537208e-01, 9.94715691e-02,
          1.38581544e-01, 8.88429135e-02, 8.59159082e-02, 1.96801379e-01,
          2.49625459e-01, 2.22276986e-01, 3.69204581e-01, 2.04562128e-01,
          1.51437074e-01, 1.10518716e-01, 1.23026401e-01, 2.23141328e-01,
          2.08916500e-01, 1.90242648e-01, 3.42389017e-01, 2.23786816e-01 ]
      - [ 3.25644426e-02, 3.25274318e-02, 2.16258373e-02, 2.44752541e-02,
          2.92528886e-02, 2.71955896e-02, 4.29054573e-02, 6.18426725e-02,
          1.13285584e-02, 0., 4.17969236e-03, 2.87883226e-02,
          3.04760244e-02, 0., 0., 5.05743213e-02, 5.66388220e-02,
          4.57723811e-02, 4.79599088e-02, 6.55929893e-02, 7.05232993e-02,
          6.24937788e-02, 6.58315271e-02, 8.23123828e-02, 4.64217626e-02,
          5.60560748e-02, 5.22695556e-02, 4.72043343e-02, 8.19524005e-02,
          5.52359223e-02, 3.74973826e-02, 1.49284124e-01, 1.41451135e-01,
          1.25671625e-01, 1.01907521e-01, 1.09378375e-01, 1.24157667e-01,
          1.33632332e-01, 1.63035288e-01, 1.60454527e-01, 9.34476256e-02,
          6.34269565e-02, 7.76550919e-02, 1.15874581e-01, 8.41940716e-02,
          8.79695266e-02, 9.13538560e-02, 1.43541723e-01, 2.38959566e-01,
          1.33712396e-01, 1.29277363e-01, 1.41904518e-01, 1.60969779e-01,
          1.60494432e-01, 2.66011596e-01, 3.29693466e-01, 2.09933832e-01,
          1.45183310e-01, 1.23886988e-01, 1.96278617e-01, 1.99869528e-01,
          1.82073206e-01, 2.44652599e-01, 3.07906210e-01 ]
      - [ 2.25985609e-02, 5.38599193e-02, 3.36993001e-02, 3.33137624e-02,
          5.44613637e-02, 4.63264026e-02, 3.54010276e-02, 1.16737187e-02,
          1.58889070e-02, 0., 1.33594824e-02, 3.65683436e-02,
          2.82171480e-02, 2.57168002e-02, 3.74104385e-03, 2.27245633e-02,
          6.46087304e-02, 3.44855636e-02, 2.90210582e-02, 2.54204329e-02,
          3.28710563e-02, 3.92711721e-02, 3.86255495e-02, 3.41381729e-02,
          3.52054946e-02, 2.68389471e-02, 4.01909538e-02, 3.14033814e-02,
          4.72785309e-02, 6.07358254e-02, 7.39278421e-02, 7.91960582e-02,
          1.55302197e-01, 1.18664496e-01, 1.09338008e-01, 1.35332227e-01,
          1.68269098e-01, 1.70645744e-01, 1.65954828e-01, 1.36303693e-01,
          1.20892234e-01, 9.51421782e-02, 7.26077557e-02, 9.26182419e-02,
          1.04467176e-01, 1.27411500e-01, 1.05495766e-01, 1.25964165e-01,
          1.77846298e-01, 1.11625239e-01, 9.20170918e-02, 2.20382020e-01,
          3.11741650e-01, 1.50363520e-01, 2.11026549e-01, 2.93784708e-01,
          2.06463143e-01, 1.41974419e-01, 1.32776976e-01, 1.69676185e-01,
          2.01751083e-01, 2.09545761e-01, 2.48260364e-01, 2.80780673e-01 ]
      - [ 1.60977931e-03, 1.37296794e-02, 1.92574635e-02, 4.21227552e-02,
          4.83872220e-02, 3.07429712e-02, 7.03381142e-03, 0.,
          1.60977931e-03, 0., 0., 0., 4.82933782e-03, 0., 0.,
          2.14061439e-02, 1.06259799e-02, 1.30556487e-02, 2.14846954e-02,
          2.82244384e-02, 7.79302716e-02, 4.83638160e-02, 2.75878254e-02,
          2.95897536e-02, 2.10579392e-02, 2.47885324e-02, 3.11465692e-02,
          3.11551448e-02, 4.23756056e-02, 1.08070917e-01, 5.07004410e-02,
          3.80018353e-02, 5.95805123e-02, 6.45254552e-02, 7.89419115e-02,
          1.13416284e-01, 2.00740412e-01, 2.17467457e-01, 6.24891296e-02,
          3.62471677e-02, 3.61292586e-02, 3.41944396e-02, 4.12923098e-02,
          5.19901440e-02, 9.42845047e-02, 1.28280908e-01, 1.23243339e-01,
          6.25110120e-02, 5.55267856e-02, 6.67860359e-02, 5.93320318e-02,
          1.16982922e-01, 2.00650677e-01, 4.96230155e-01, 2.06506073e-01,
          8.88234302e-02, 8.69498104e-02, 8.87633339e-02, 1.12095170e-01,
          1.70196667e-01, 2.90268153e-01, 4.94444698e-01, 1.89965576e-01,
          8.51244405e-02 ]
      - [ 2.06695590e-02, 1.61420871e-02, 2.01661326e-02, 7.19420016e-02,
          9.71464887e-02, 2.87506860e-02, 3.13189216e-02, 2.86042187e-02,
          1.89322438e-02, 0., 0., 1.07882090e-01, 5.72907589e-02,
          3.09513439e-03, 1.81124061e-02, 1.28800422e-02, 7.34537989e-02,
          2.44710799e-02, 1.83408856e-02, 9.57573578e-03, 1.82750672e-02,
          2.62233689e-02, 4.15748879e-02, 9.88875404e-02, 4.67988215e-02,
          2.76099313e-02, 1.29756993e-02, 2.04858016e-02, 2.49064323e-02,
          2.39396766e-02, 4.30290848e-02, 1.20294340e-01, 9.70855504e-02,
          8.34422708e-02, 1.00297108e-01, 3.62152249e-01, 2.70827174e-01,
          1.18223727e-01, 1.00826323e-01, 9.67224464e-02, 8.48137364e-02,
          5.58494292e-02, 5.15327826e-02, 3.08909655e-01, 1.98407322e-01,
          4.35327925e-02, 7.32473582e-02, 8.14648271e-02, 1.42803699e-01,
          9.24470872e-02, 9.69951600e-02, 2.16727704e-01, 2.16205820e-01,
          1.15274273e-01, 1.68907836e-01, 2.60011494e-01, 1.52968541e-01,
          1.21214092e-01, 1.12099133e-01, 2.02998608e-01, 2.10314423e-01,
          1.28380939e-01, 1.69019595e-01, 2.77737081e-01 ]
      - [ 5.28356573e-03, 0., 6.31226180e-03, 4.75655273e-02,
          3.53241488e-02, 0., 0., 0., 9.15140472e-03, 0., 1.99573003e-02,
          1.21813633e-01, 4.46363352e-02, 0., 0., 0., 4.34882492e-02,
          4.45946641e-02, 5.88483214e-02, 5.67304939e-02, 7.51677603e-02,
          2.58822367e-02, 3.19548696e-02, 2.29748264e-02, 2.73634009e-02,
          3.22970338e-02, 4.90151793e-02, 7.65196458e-02, 6.57595918e-02,
          4.40869480e-02, 4.85398099e-02, 1.13152504e-01, 7.55476654e-02,
          6.23701513e-02, 6.75829500e-02, 2.27301270e-01, 1.73519403e-01,
          5.94702996e-02, 5.95429949e-02, 1.32520169e-01, 9.49899778e-02,
          6.34021685e-02, 9.18020979e-02, 2.64323950e-01, 1.61167875e-01,
          6.95402473e-02, 9.07240734e-02, 1.10312216e-01, 1.85719073e-01,
          1.15984283e-01, 1.21310450e-01, 2.58628160e-01, 2.14005277e-01,
          1.83790460e-01, 2.03147441e-01, 3.05648476e-01, 1.71151549e-01,
          1.21801823e-01, 1.39628321e-01, 2.12370768e-01, 2.25382790e-01,
          1.51716083e-01, 1.95196733e-01, 3.18764448e-01 ]
      - [ 3.85936797e-02, 1.61178187e-02, 1.54118780e-02, 1.41171226e-02,
          2.38419473e-02, 1.97549779e-02, 3.96821238e-02, 3.27222049e-02,
          1.73540786e-02, 4.08140710e-03, 1.03668896e-02, 1.14316158e-02,
          2.72940146e-03, 2.88599054e-03, 2.77595054e-02, 4.64546457e-02,
          9.85128433e-02, 4.21500131e-02, 1.40948929e-02, 2.71897782e-02,
          2.88917925e-02, 3.34801786e-02, 5.12686744e-02, 6.01579808e-02,
          5.39709404e-02, 3.45884226e-02, 1.51373297e-02, 1.87386237e-02,
          6.33585230e-02, 2.90091764e-02, 4.69732098e-02, 1.46674260e-01,
          8.33669677e-02, 6.68697581e-02, 8.30001757e-02, 1.21521465e-01,
          1.51932120e-01, 8.06297660e-02, 8.24431926e-02, 9.38182920e-02,
          7.55202174e-02, 5.49285747e-02, 4.51994538e-02, 9.51293930e-02,
          1.21631399e-01, 5.67733087e-02, 4.51004729e-02, 6.83897734e-02,
          2.41849810e-01, 1.55041277e-01, 1.61660761e-01, 3.00031066e-01,
          2.90570349e-01, 1.77050263e-01, 1.90509886e-01, 2.54387349e-01,
          2.00606957e-01, 1.45970464e-01, 1.60004720e-01, 3.39000702e-01,
          3.08981359e-01, 1.55549288e-01, 1.32443383e-01, 2.43458241e-01 ]
      - [ 1.58102125e-01, 5.31815477e-02, 4.38574627e-02, 7.79203977e-03,
          2.29992308e-02, 1.14549724e-02, 8.46871641e-03, 2.24218275e-02,
          5.24681173e-02, 2.78356224e-02, 0., 1.05422046e-02,
          2.18538959e-02, 0., 1.81532558e-02, 2.33059730e-02,
          1.33806482e-01, 4.05402258e-02, 1.79337431e-02, 2.67580915e-02,
          4.99339662e-02, 2.19279230e-02, 2.98426431e-02, 3.66425999e-02,
          9.20069739e-02, 3.35237868e-02, 3.63785513e-02, 5.31913117e-02,
          5.00778556e-02, 3.49403620e-02, 3.40364836e-02, 6.48843944e-02,
          1.83636710e-01, 1.35007679e-01, 1.23775169e-01, 1.29679531e-01,
          1.67419791e-01, 1.00455381e-01, 1.18620805e-01, 1.15310118e-01,
          1.88992426e-01, 9.93346348e-02, 8.06558803e-02, 9.51660872e-02,
          1.30400389e-01, 8.21875930e-02, 7.78410509e-02, 9.24109295e-02,
          3.44087958e-01, 1.88261300e-01, 1.25858560e-01, 1.36909872e-01,
          1.59450084e-01, 1.37541860e-01, 1.61320165e-01, 1.90720081e-01,
          3.81285459e-01, 2.12550297e-01, 1.77979276e-01, 1.54417619e-01,
          1.83748201e-01, 1.57233834e-01, 1.62646845e-01, 2.00184688e-01 ]
      - [ 5.35460226e-02, 3.65382358e-02, 3.54510956e-02, 7.46831894e-02,
          5.80213703e-02, 4.44563814e-02, 3.97114456e-02, 1.96664408e-02,
          1.90030653e-02, 1.21484399e-02, 0., 6.81562210e-03,
          1.28232474e-02, 7.95722287e-03, 0., 0., 8.67650211e-02,
          5.59739470e-02, 2.66376566e-02, 1.51455868e-02, 5.56227751e-02,
          1.87123008e-02, 5.66957556e-02, 1.62854180e-01, 5.53410426e-02,
          1.92504097e-02, 4.68336279e-03, 7.47801131e-03, 5.79535514e-02,
          4.54635769e-02, 5.95046952e-02, 2.31599227e-01, 1.50126874e-01,
          9.08800438e-02, 1.23483717e-01, 2.06314191e-01, 2.23390833e-01,
          1.71590313e-01, 1.24827079e-01, 1.88768342e-01, 1.04221500e-01,
          5.15760928e-02, 5.17406538e-02, 8.51311460e-02, 9.87112224e-02,
          8.76593292e-02, 7.42048919e-02, 1.39427468e-01, 1.60686046e-01,
          9.07825604e-02, 8.68643820e-02, 2.98242390e-01, 2.64830709e-01,
          1.60531029e-01, 2.24891201e-01, 2.44333133e-01, 1.45957828e-01,
          1.12026669e-01, 1.20849565e-01, 1.90669224e-01, 2.07917571e-01,
          1.65322140e-01, 1.63364887e-01, 2.57266253e-01 ]
      - [ 9.33134407e-02, 1.22572109e-02, 0., 0., 1.59729123e-02,
          4.92849387e-03, 9.15605202e-03, 3.55491415e-02, 3.75462063e-02,
          6.11743331e-03, 1.44929159e-02, 1.30307991e-02, 9.31883883e-03,
          0., 2.16484442e-02, 6.96464851e-02, 7.16470554e-02,
          2.55788937e-02, 2.15429738e-02, 6.15544729e-02, 7.69694373e-02,
          4.50038724e-02, 2.60035973e-02, 3.05272788e-02, 3.20938528e-02,
          2.35240627e-02, 2.70887800e-02, 6.61482140e-02, 9.27759558e-02,
          2.17636768e-02, 1.81861036e-02, 9.20581222e-02, 1.69022352e-01,
          1.23988561e-01, 1.17873132e-01, 1.19415075e-01, 1.15325928e-01,
          1.12947285e-01, 1.19540513e-01, 1.47026092e-01, 1.34900346e-01,
          7.22514391e-02, 6.64421394e-02, 9.97921973e-02, 1.15509316e-01,
          6.67901784e-02, 5.96818365e-02, 8.10068473e-02, 3.04054022e-01,
          1.48520797e-01, 1.21613830e-01, 1.16546452e-01, 1.54600337e-01,
          1.39443263e-01, 1.76225364e-01, 3.33243102e-01, 2.66903609e-01,
          1.80078924e-01, 1.60414487e-01, 2.24205300e-01, 2.88173944e-01,
          1.90657407e-01, 2.02473894e-01, 2.64455855e-01 ]
      - [ 8.03540461e-03, 7.44174980e-03, 6.12880103e-03, 5.62876277e-03,
          5.40369516e-03, 3.06348922e-03, 8.77029449e-03, 1.54536776e-02,
          1.54678952e-02, 6.05825381e-03, 1.97918192e-02, 3.27006951e-02,
          3.77319939e-02, 1.07962750e-02, 1.00565720e-02, 5.44850249e-03,
          4.55757789e-02, 2.18413267e-02, 2.20993180e-02, 3.19136120e-02,
          5.65068014e-02, 3.46122235e-02, 5.50697632e-02, 3.79621647e-02,
          3.39940526e-02, 2.15446781e-02, 2.05735303e-02, 2.53203548e-02,
          5.06220721e-02, 2.87476275e-02, 6.17364608e-02, 1.20420724e-01,
          1.31838351e-01, 9.59601700e-02, 1.03564061e-01, 1.17888570e-01,
          1.30534425e-01, 1.31253704e-01, 1.38143659e-01, 1.99079216e-01,
          1.02402546e-01, 4.84467000e-02, 6.05257973e-02, 7.45874122e-02,
          8.44449401e-02, 9.50485319e-02, 1.00511156e-01, 1.62137017e-01,
          2.13561043e-01, 1.15939096e-01, 1.33988202e-01, 1.84147209e-01,
          1.50231421e-01, 1.53875515e-01, 2.71920472e-01, 3.44195276e-01,
          2.07107380e-01, 1.22996002e-01, 1.42334744e-01, 1.97159126e-01,
          1.88780561e-01, 2.00768724e-01, 2.71221042e-01, 3.51701051e-01 ]
      - [ 3.35975108e-03, 1.41260133e-03, 0., 4.83528636e-02,
          8.55763629e-02, 0., 4.46703751e-03, 0., 5.64200897e-03,
          1.41260133e-03, 0., 0., 0., 0., 0., 2.11233157e-03,
          8.78305584e-02, 4.79826294e-02, 4.66228239e-02, 5.84005453e-02,
          6.87015429e-02, 7.15793297e-02, 3.83001454e-02, 4.44786772e-02,
          4.91510965e-02, 4.39744517e-02, 6.26892298e-02, 5.71509711e-02,
          8.29441622e-02, 4.84630801e-02, 3.64105850e-02, 1.18168339e-01,
          4.65683043e-02, 5.19325398e-02, 8.97099450e-02, 2.31079966e-01,
          2.60900944e-01, 1.14420705e-01, 5.47482483e-02, 9.91270468e-02,
          6.13818094e-02, 4.17631119e-02, 4.82949577e-02, 6.20591827e-02,
          7.20793903e-02, 6.52348772e-02, 6.92069829e-02, 6.07511140e-02,
          2.69182920e-01, 1.87462196e-01, 1.63102865e-01, 2.02866122e-01,
          2.09070578e-01, 1.79471835e-01, 1.97388828e-01, 3.08400393e-01,
          2.67667204e-01, 1.86456427e-01, 1.54646650e-01, 2.19234839e-01,
          2.32251003e-01, 1.70644581e-01, 1.67943165e-01, 2.45726705e-01 ]
      - [ 1.10356277e-02, 1.75372115e-03, 3.06530911e-02, 2.77283937e-02,
          5.70601970e-02, 2.32761782e-02, 3.03753396e-03, 0.,
          1.14049921e-02, 3.03753396e-03, 4.06967802e-03, 7.62489587e-02,
          4.27366383e-02, 3.11860628e-03, 3.03753396e-03, 0.,
          6.56509995e-02, 3.52272205e-02, 4.42434810e-02, 4.08128873e-02,
          7.43958801e-02, 3.44546624e-02, 3.99379693e-02, 2.72691362e-02,
          2.01397259e-02, 1.88144576e-02, 2.21980549e-02, 2.12418251e-02,
          3.86853702e-02, 6.14683069e-02, 7.69389346e-02, 1.38881102e-01,
          1.40747756e-01, 8.43571052e-02, 6.81655928e-02, 1.65240258e-01,
          9.80317816e-02, 9.88835171e-02, 1.09674476e-01, 1.69774979e-01,
          1.29796192e-01, 5.39664328e-02, 5.15414067e-02, 1.40264034e-01,
          1.18446052e-01, 9.53403637e-02, 1.06029287e-01, 1.20421879e-01,
          2.80650169e-01, 1.22888058e-01, 1.07653476e-01, 1.07865803e-01,
          1.36222914e-01, 1.86778978e-01, 3.17393750e-01, 3.47504586e-01,
          2.23964006e-01, 1.17638081e-01, 8.93343240e-02, 1.21947967e-01,
          1.59622714e-01, 1.67430654e-01, 2.24872261e-01, 3.78274530e-01 ]
      - [ 3.91292609e-02, 6.52113138e-03, 0., 3.89300473e-03,
          1.27566522e-02, 0., 1.16220592e-02, 2.21986230e-02,
          3.99630405e-02, 5.70673449e-03, 0., 0., 2.88534840e-03, 0.,
          7.35614961e-03, 2.91940309e-02, 4.72877361e-02, 9.96051542e-03,
          8.47811531e-03, 2.71136314e-03, 3.57100740e-02, 6.23295223e-03,
          2.62241345e-02, 1.45969167e-01, 7.52075911e-02, 1.87958758e-02,
          9.92999505e-03, 0., 1.65684149e-02, 6.04635989e-03,
          7.45456573e-03, 4.54472341e-02, 2.61019349e-01, 1.50182188e-01,
          9.34883282e-02, 9.44588631e-02, 1.08462974e-01, 7.83340707e-02,
          8.42352957e-02, 2.23112285e-01, 1.68908536e-01, 1.68616772e-02,
          2.29953285e-02, 5.77601083e-02, 8.49296376e-02, 3.21591459e-02,
          4.04240750e-02, 4.89657372e-02, 4.60591227e-01, 1.39498755e-01,
          9.75516960e-02, 1.41816601e-01, 1.75600022e-01, 9.57425013e-02,
          1.35299921e-01, 2.93163598e-01, 3.90635699e-01, 1.62622079e-01,
          9.20051783e-02, 1.05348736e-01, 1.96774527e-01, 1.26672372e-01,
          1.38701856e-01, 2.33742341e-01 ]
      - [ 9.82098132e-02, 2.05792114e-02, 0., 6.96270354e-03,
          1.96643863e-02, 0., 1.38993403e-02, 1.92661174e-02,
          2.20488086e-02, 0., 3.32787330e-03, 0., 0., 0., 0., 0.,
          1.15699850e-01, 3.53909880e-02, 5.79745648e-03, 1.12826265e-02,
          3.86148840e-02, 1.14366757e-02, 1.89107899e-02, 9.62263718e-02,
          6.38079196e-02, 7.05782417e-03, 0., 1.23000871e-02,
          3.70509587e-02, 1.37173068e-02, 4.19129282e-02, 2.57663690e-02,
          2.14114547e-01, 1.39266104e-01, 1.34342611e-01, 1.27956107e-01,
          1.36427343e-01, 1.17312230e-01, 1.26067951e-01, 1.44761577e-01,
          1.88013807e-01, 9.83483121e-02, 8.73687863e-02, 8.91711488e-02,
          9.38193202e-02, 7.13329688e-02, 8.44041184e-02, 9.51563567e-02,
          3.00253183e-01, 2.09137425e-01, 1.33014083e-01, 2.09941998e-01,
          2.00889707e-01, 1.27070338e-01, 1.44207820e-01, 1.81700572e-01,
          3.27556223e-01, 2.03054041e-01, 1.74219400e-01, 2.35395104e-01,
          2.60434568e-01, 1.48950934e-01, 1.66954562e-01, 1.90877736e-01 ]
      - [ 8.02549534e-03, 1.88823715e-02, 5.93905570e-03, 0., 0., 0., 0.,
          0., 0., 0., 0., 0., 0., 0., 0., 0., 1.57478135e-02,
          2.60983631e-02, 5.74239194e-02, 2.44525950e-02, 5.18453792e-02,
          1.69006959e-02, 1.46229928e-02, 9.61430743e-03, 1.15093682e-02,
          6.54222351e-03, 8.08082893e-03, 2.57726070e-02, 4.70591374e-02,
          2.80840900e-02, 2.30818465e-02, 1.47523526e-02, 7.31421337e-02,
          9.55359936e-02, 1.11987762e-01, 1.21916100e-01, 3.41162354e-01,
          5.56773618e-02, 3.72884087e-02, 1.96246952e-02, 6.84118643e-02,
          7.57127106e-02, 1.00863978e-01, 1.15314975e-01, 3.24856341e-01,
          5.90993203e-02, 3.47606018e-02, 2.17174366e-02, 8.49232376e-02,
          1.43473849e-01, 2.78938144e-01, 2.90371835e-01, 2.42645442e-01,
          1.35442197e-01, 9.09381956e-02, 5.93033731e-02, 1.09470248e-01,
          1.80110425e-01, 2.71541238e-01, 2.86839277e-01, 4.12264466e-01,
          1.21225007e-01, 9.20302123e-02, 8.09613019e-02 ]
      - [ 4.21884619e-02, 3.60381715e-02, 2.33075898e-02, 3.24125364e-02,
          3.86083163e-02, 3.34173925e-02, 5.10095730e-02, 6.10899515e-02,
          2.18545217e-02, 0., 0., 7.90621433e-03, 2.31098700e-02, 0.,
          1.90045685e-02, 3.47154215e-02, 5.25013059e-02, 1.68272182e-02,
          7.17404392e-03, 1.11527285e-02, 1.59645099e-02, 1.01776347e-02,
          4.82484959e-02, 5.91507107e-02, 1.74913313e-02, 9.52341221e-03,
          4.72777104e-03, 7.14353286e-03, 3.50455865e-02, 1.93248633e-02,
          8.00194591e-02, 1.68593585e-01, 1.15998305e-01, 9.87248868e-02,
          9.29055586e-02, 1.28949404e-01, 1.54833302e-01, 1.43339619e-01,
          1.73017800e-01, 1.66521877e-01, 9.92882550e-02, 5.24448194e-02,
          5.20288348e-02, 9.08658579e-02, 7.85671771e-02, 4.38087508e-02,
          9.22459811e-02, 1.90370321e-01, 1.50267452e-01, 7.73242339e-02,
          9.62240621e-02, 2.66180903e-01, 2.25621492e-01, 1.73790127e-01,
          2.63869137e-01, 2.72530049e-01, 1.60636038e-01, 1.25797212e-01,
          1.56116217e-01, 2.89919496e-01, 2.26141036e-01, 1.90530553e-01,
          2.35674560e-01, 2.89256275e-01 ]
      - [ 1.10674165e-01, 5.28794602e-02, 3.13357636e-02, 2.36395802e-02,
          3.24555859e-02, 2.20576599e-02, 4.87039750e-03, 2.25336291e-02,
          5.56771792e-02, 1.58436000e-02, 0., 0., 0., 0., 0.,
          2.52256114e-02, 9.36217234e-02, 6.58028796e-02, 2.99142264e-02,
          3.77137102e-02, 6.16410710e-02, 3.58783081e-02, 3.78936268e-02,
          2.60669813e-02, 2.28805207e-02, 3.14075574e-02, 4.34134752e-02,
          6.86994344e-02, 7.41299763e-02, 3.87781970e-02, 3.09331510e-02,
          3.80069539e-02, 1.39794230e-01, 1.60402134e-01, 1.35352567e-01,
          1.67890921e-01, 1.36893272e-01, 1.24526523e-01, 1.13388754e-01,
          8.96682963e-02, 1.44574955e-01, 1.03240423e-01, 1.10899769e-01,
          1.14811741e-01, 1.13105170e-01, 7.30129853e-02, 7.09218085e-02,
          6.10772856e-02, 2.77381539e-01, 2.50924647e-01, 1.92074031e-01,
          2.05341995e-01, 2.54134953e-01, 1.42859131e-01, 1.41629413e-01,
          1.71093285e-01, 2.94850051e-01, 2.28725716e-01, 2.02381149e-01,
          2.23773271e-01, 2.16733947e-01, 1.48839146e-01, 1.48643419e-01,
          1.77722797e-01 ]
      - [ 2.82492116e-02, 2.76257582e-02, 2.93024201e-02, 9.11785513e-02,
          6.24591522e-02, 1.02821551e-02, 0., 3.87179805e-03,
          4.94264020e-03, 4.38107084e-03, 1.74708720e-02, 3.66414897e-02,
          3.79602313e-02, 1.27169117e-02, 0., 0., 6.04166947e-02,
          4.33634371e-02, 5.28969355e-02, 5.81371859e-02, 3.69252078e-02,
          2.77973656e-02, 2.75740456e-02, 1.98091492e-02, 2.85241064e-02,
          3.26578990e-02, 3.70120667e-02, 5.43973558e-02, 6.74016252e-02,
          7.61056766e-02, 1.16581105e-01, 1.55362323e-01, 1.22287184e-01,
          8.90182778e-02, 9.52421948e-02, 1.99778765e-01, 1.70034572e-01,
          1.24293923e-01, 1.42738000e-01, 1.32366762e-01, 1.01172477e-01,
          7.06326067e-02, 7.45019317e-02, 1.55176014e-01, 1.76029190e-01,
          9.76762697e-02, 8.41563866e-02, 7.08382130e-02, 1.96866065e-01,
          1.26137406e-01, 1.20871730e-01, 1.66262597e-01, 1.73657700e-01,
          1.26528978e-01, 1.46210790e-01, 3.14314991e-01, 2.20565289e-01,
          1.44165501e-01, 1.67571887e-01, 3.22281539e-01, 2.57688254e-01,
          1.53217465e-01, 1.33262038e-01, 2.98004657e-01 ]
      - [ 4.79610749e-02, 4.00663950e-02, 3.90656814e-02, 4.15706225e-02,
          4.23208587e-02, 4.13185582e-02, 2.65620667e-02, 1.09807495e-02,
          1.23157138e-02, 4.07588668e-03, 0., 1.33963991e-02,
          1.00021074e-02, 2.65042521e-02, 2.22357251e-02, 6.51545525e-02,
          4.89372276e-02, 5.12426756e-02, 2.27749310e-02, 0.,
          1.41523257e-02, 9.86271352e-03, 2.04332378e-02, 5.10315560e-02,
          2.48619281e-02, 2.61645811e-03, 7.77291786e-03, 1.04090013e-02,
          2.92537622e-02, 5.31255789e-02, 4.36662100e-02, 1.44654945e-01,
          1.57612845e-01, 1.34274766e-01, 1.28755361e-01, 1.57145172e-01,
          1.58390060e-01, 1.61187053e-01, 1.45291477e-01, 1.50238469e-01,
          1.30418181e-01, 8.11055899e-02, 7.22370520e-02, 8.93713981e-02,
          7.62355104e-02, 6.62133619e-02, 8.58201683e-02, 1.09665282e-01,
          2.13379383e-01, 1.35989264e-01, 1.16494194e-01, 1.20159633e-01,
          1.67537734e-01, 1.65345997e-01, 2.23309815e-01, 3.45440924e-01,
          2.54629254e-01, 1.64324835e-01, 1.58963561e-01, 1.82043672e-01,
          1.84927016e-01, 1.72254249e-01, 2.31606349e-01, 3.41749012e-01 ]
      - [ 4.79240194e-02, 4.70821150e-02, 2.35473961e-02, 3.14864144e-02,
          2.05571670e-02, 0., 0., 0., 0., 1.18181482e-02, 1.89536717e-02,
          0., 2.37383917e-02, 2.96797287e-02, 1.54134938e-02,
          2.64673587e-02, 3.64528969e-02, 8.68635625e-02, 6.30303919e-02,
          9.22513306e-02, 9.18046460e-02, 4.59910333e-02, 3.48245203e-02,
          3.84672172e-02, 6.19432628e-02, 6.68436512e-02, 5.40924780e-02,
          7.71066025e-02, 1.03939764e-01, 3.61451656e-02, 2.16262005e-02,
          3.50524187e-02, 4.85081188e-02, 3.68139520e-02, 4.64159474e-02,
          1.13919318e-01, 1.39282465e-01, 5.90412728e-02, 4.44749929e-02,
          2.64030825e-02, 6.39458895e-02, 2.68664584e-02, 4.30500209e-02,
          1.50585547e-01, 2.15879604e-01, 3.64890024e-02, 2.17805542e-02,
          1.76347438e-02, 1.72223195e-01, 2.69015312e-01, 2.92507559e-01,
          2.89227605e-01, 3.05430382e-01, 1.74253434e-01, 1.35645628e-01,
          1.55271396e-01, 2.17086762e-01, 2.65303284e-01, 2.40211353e-01,
          2.85680085e-01, 2.47067481e-01, 1.42273873e-01, 1.18199371e-01,
          1.14508003e-01 ]
      - [ 1.79904923e-02, 3.86957228e-02, 3.50290164e-02, 3.71962413e-02,
          7.17207789e-02, 3.39355208e-02, 3.21253724e-02, 4.86396551e-02,
          4.11383696e-02, 1.90393757e-02, 3.64115834e-02, 3.27739008e-02,
          3.75549830e-02, 1.57239996e-02, 0., 0., 4.16635498e-02,
          2.52864677e-02, 2.25963071e-02, 3.68005894e-02, 5.91031276e-02,
          4.60579433e-02, 4.85490002e-02, 3.88986580e-02, 3.52999046e-02,
          3.40148993e-02, 4.86073382e-02, 6.52469099e-02, 8.02057087e-02,
          7.69728497e-02, 8.05169865e-02, 8.02258924e-02, 1.19972795e-01,
          8.13407227e-02, 8.15999657e-02, 1.16785102e-01, 1.46900773e-01,
          1.38185114e-01, 1.32346794e-01, 1.24579504e-01, 1.03459567e-01,
          5.84101975e-02, 6.64609969e-02, 1.37988865e-01, 1.96724474e-01,
          9.58642587e-02, 1.17920421e-01, 1.40139922e-01, 1.61920473e-01,
          1.01378165e-01, 9.30831358e-02, 1.65515736e-01, 2.22082183e-01,
          1.62327394e-01, 2.46675193e-01, 2.98667133e-01, 1.87687159e-01,
          1.55997902e-01, 1.38509631e-01, 1.96266115e-01, 2.51858890e-01,
          2.19968319e-01, 2.94128478e-01, 2.89545745e-01 ]
      - [ 1.04410648e-01, 9.77347046e-02, 1.50462156e-02, 1.56264286e-02,
          0., 9.54353437e-03, 7.34634791e-03, 0., 0., 6.92896219e-03,
          1.36917448e-02, 3.15449871e-02, 2.41707042e-02, 0., 0.,
          1.61494967e-02, 7.92460293e-02, 4.56817709e-02, 1.63644943e-02,
          3.68387438e-02, 6.68429956e-02, 2.15386469e-02, 1.93360038e-02,
          2.97530908e-02, 4.03637588e-02, 3.03743761e-02, 2.13419329e-02,
          3.17070782e-02, 8.60703439e-02, 3.81008759e-02, 3.82503644e-02,
          4.59760129e-02, 1.02085486e-01, 2.12247089e-01, 1.65284351e-01,
          1.16570182e-01, 1.60391092e-01, 8.77595395e-02, 7.64438435e-02,
          9.43504274e-02, 1.37520492e-01, 1.88920677e-01, 1.55154318e-01,
          1.36320516e-01, 1.34430185e-01, 6.41532764e-02, 6.41218424e-02,
          4.56983782e-02, 1.58478335e-01, 2.70478904e-01, 1.83957770e-01,
          1.87881798e-01, 2.29539469e-01, 9.72262695e-02, 1.00414209e-01,
          1.04492895e-01, 1.78946137e-01, 2.61782646e-01, 2.41847172e-01,
          3.06714624e-01, 3.58990043e-01, 1.21702231e-01, 1.17298484e-01,
          1.13617644e-01 ]
      - [ 3.00403722e-02, 3.61081064e-02, 3.92291881e-02, 2.64426339e-02,
          3.52097116e-02, 5.45627885e-02, 2.53736842e-02, 1.37719307e-02,
          2.96682622e-02, 1.75810382e-02, 3.39387953e-02, 3.35469246e-02,
          4.78086509e-02, 7.41515309e-02, 3.87702696e-02, 9.44311824e-03,
          8.82221535e-02, 4.30844724e-02, 3.34652402e-02, 4.13066819e-02,
          8.40282515e-02, 1.08889705e-02, 4.82165627e-02, 4.47743125e-02,
          2.11611185e-02, 1.26777720e-02, 1.46688577e-02, 2.69884057e-02,
          5.02009727e-02, 5.40272072e-02, 6.87258169e-02, 1.21977754e-01,
          1.41193062e-01, 9.22037289e-02, 6.58567771e-02, 7.68854246e-02,
          1.72120407e-01, 8.52671191e-02, 1.62932917e-01, 1.80562109e-01,
          1.35870159e-01, 9.34130549e-02, 4.46006618e-02, 5.97466193e-02,
          1.47234023e-01, 6.73340484e-02, 1.22623451e-01, 1.77060753e-01,
          1.65202558e-01, 1.18545413e-01, 7.38244653e-02, 1.15394801e-01,
          2.97800124e-01, 1.88310280e-01, 2.69330174e-01, 2.92075723e-01,
          1.99455380e-01, 1.39009506e-01, 1.13854840e-01, 1.36523724e-01,
          2.21546546e-01, 1.90712661e-01, 2.80163199e-01, 3.00436795e-01 ]
      - [ 7.43505582e-02, 5.53522725e-03, 0., 0., 1.93110015e-02, 0., 0.,
          0., 1.16292424e-02, 4.76089539e-03, 0., 0., 0., 0.,
          9.12047981e-04, 0., 3.81481089e-02, 7.63729168e-03, 0., 0.,
          1.87729448e-02, 0., 1.28983054e-03, 1.73182308e-03,
          9.87529457e-02, 7.79970456e-03, 1.62187614e-03, 0., 0., 0.,
          1.28983054e-03, 0., 2.41201162e-01, 1.60376847e-01,
          8.21960568e-02, 6.52517155e-02, 8.57935026e-02, 7.41038993e-02,
          1.42892525e-01, 1.18549839e-01, 2.48366967e-01, 1.09300345e-01,
          9.12849009e-02, 1.11079611e-01, 1.03249967e-01, 8.79150704e-02,
          9.85540524e-02, 1.11443266e-01, 4.81543958e-01, 1.54330730e-01,
          1.12767361e-01, 1.12872429e-01, 1.17297769e-01, 1.05657972e-01,
          1.10808901e-01, 1.41552866e-01, 4.93659973e-01, 1.79565862e-01,
          1.14749998e-01, 7.57029802e-02, 8.76676291e-02, 1.00975372e-01,
          1.57552466e-01, 1.70920238e-01 ]
      - [ 5.24636917e-02, 7.30060935e-02, 4.95694019e-02, 5.67117594e-02,
          6.15141653e-02, 2.02345829e-02, 2.89871097e-02, 0.,
          1.88481398e-02, 0., 1.49186198e-02, 0., 2.05696262e-02, 0.,
          1.29524721e-02, 1.65573880e-02, 6.38816878e-02, 2.68152021e-02,
          2.04196889e-02, 2.80324724e-02, 4.73184288e-02, 2.67186724e-02,
          1.75560620e-02, 2.15591174e-02, 1.72585696e-02, 1.63951721e-02,
          3.98503505e-02, 5.93281947e-02, 7.81770423e-02, 4.44100164e-02,
          9.41423848e-02, 1.26808539e-01, 1.22429565e-01, 7.64041021e-02,
          1.06752880e-01, 2.13864014e-01, 2.38377601e-01, 1.08143926e-01,
          1.42937481e-01, 9.75704342e-02, 1.00046627e-01, 2.91360896e-02,
          3.80580947e-02, 4.48717885e-02, 5.50622456e-02, 5.10639213e-02,
          4.89097200e-02, 2.99910717e-02, 3.18366379e-01, 1.90528110e-01,
          1.41334996e-01, 1.43075645e-01, 1.51523128e-01, 1.92230880e-01,
          2.14623690e-01, 3.11359406e-01, 2.91061521e-01, 1.97008938e-01,
          1.71391949e-01, 1.51553109e-01, 1.99326083e-01, 1.76452383e-01,
          1.62024528e-01, 2.78639615e-01 ]
      - [ 1.13150932e-01, 6.67644069e-02, 5.45008890e-02, 7.08679408e-02,
          3.38574499e-02, 0., 1.90700516e-02, 1.31716561e-02,
          6.66377181e-03, 1.03571592e-02, 2.07991321e-02, 2.73799151e-02,
          2.55359802e-02, 0., 5.04640862e-03, 2.15197932e-02,
          1.09153591e-01, 4.51573879e-02, 3.50693911e-02, 3.75931337e-02,
          7.28319511e-02, 1.64408535e-02, 1.36818970e-02, 1.02138808e-02,
          1.78607460e-02, 2.11355276e-02, 2.35591680e-02, 6.98751882e-02,
          1.21125281e-01, 4.29338813e-02, 5.14689721e-02, 3.33486274e-02,
          4.22123745e-02, 5.76468967e-02, 7.98673332e-02, 2.11259484e-01,
          3.69453788e-01, 8.31969380e-02, 4.87027764e-02, 2.51061767e-02,
          4.98877577e-02, 2.47328542e-02, 5.60036488e-02, 1.19596280e-01,
          2.04360217e-01, 4.05163653e-02, 2.18087658e-02, 1.73177980e-02,
          1.87612996e-01, 1.82940736e-01, 2.05173388e-01, 1.87221572e-01,
          2.22522050e-01, 1.29246265e-01, 1.09390102e-01, 1.20209895e-01,
          2.43380114e-01, 2.23946139e-01, 2.05786258e-01, 2.68307835e-01,
          4.00269419e-01, 1.04652472e-01, 1.06891684e-01, 9.81003046e-02 ]
      - [ 1.67685598e-02, 7.89944921e-03, 4.16331999e-02, 4.27829474e-02,
          5.43971322e-02, 3.73226069e-02, 3.94330360e-02, 2.38638613e-02,
          2.22597495e-02, 0., 1.09392367e-02, 5.48506975e-02,
          3.81912664e-02, 0., 0., 0., 6.86511174e-02, 3.69352847e-02,
          3.63211408e-02, 4.15493324e-02, 3.99435945e-02, 5.76750189e-02,
          9.09695104e-02, 8.92712623e-02, 2.94290204e-02, 1.46889407e-02,
          1.51992822e-02, 2.92686112e-02, 5.93604483e-02, 4.41376492e-02,
          3.94799300e-02, 1.58305779e-01, 1.11733429e-01, 1.09958299e-01,
          1.15673810e-01, 1.74236357e-01, 1.65156350e-01, 1.06061518e-01,
          1.17195494e-01, 1.72506019e-01, 9.29147750e-02, 7.41320252e-02,
          7.04651177e-02, 1.15850046e-01, 1.21999763e-01, 6.70313239e-02,
          8.98457095e-02, 1.33002490e-01, 1.96112961e-01, 1.47273630e-01,
          1.54509977e-01, 3.94143760e-01, 2.82524705e-01, 1.82963103e-01,
          2.23773390e-01, 1.95908502e-01, 1.69981033e-01, 1.45038605e-01,
          1.48894116e-01, 1.85747817e-01, 1.79732844e-01, 1.55387655e-01,
          1.79493412e-01, 2.35807434e-01 ]
      - [ 4.13739160e-02, 3.94934155e-02, 4.05720994e-02, 3.59840691e-02,
          4.72504757e-02, 2.13857517e-02, 2.11082362e-02, 1.13837291e-02,
          1.20764636e-02, 1.16615556e-02, 0., 9.35565960e-03,
          1.71971489e-02, 0., 2.91390195e-02, 3.88346352e-02,
          1.07892379e-01, 4.88099083e-02, 1.76608153e-02, 2.22142301e-02,
          2.24912744e-02, 2.65778862e-02, 3.21380757e-02, 3.53362150e-02,
          3.96047793e-02, 3.32442150e-02, 4.66253199e-02, 4.69813421e-02,
          4.79895920e-02, 3.71069275e-02, 6.09097779e-02, 1.03389770e-01,
          2.17916727e-01, 1.36328816e-01, 6.68045059e-02, 3.69018503e-02,
          6.14294037e-02, 1.10475965e-01, 1.41769931e-01, 2.00879067e-01,
          1.42392874e-01, 9.01126862e-02, 6.71086684e-02, 7.93482140e-02,
          1.00337483e-01, 8.46064165e-02, 1.10291198e-01, 1.54563472e-01,
          3.10666353e-01, 1.41094461e-01, 1.15381829e-01, 1.04355566e-01,
          1.24569759e-01, 1.33851871e-01, 1.83049709e-01, 3.54278743e-01,
          2.58175105e-01, 1.71463266e-01, 1.61793962e-01, 1.35353222e-01,
          1.36996552e-01, 1.66328728e-01, 1.91489950e-01, 3.82763505e-01 ]
      - [ 7.62687298e-03, 3.63840396e-03, 0., 4.77504395e-02,
          7.82169327e-02, 4.63658571e-02, 6.52034953e-02, 1.56624969e-02,
          1.69796515e-02, 0., 0., 0., 6.11904170e-03, 0., 0., 0.,
          3.21408957e-02, 1.29545843e-02, 0., 3.08966753e-03,
          1.44671313e-02, 2.02815104e-02, 9.05375034e-02, 8.00894052e-02,
          6.74914615e-03, 1.71745885e-02, 1.23855053e-02, 0.,
          5.46526387e-02, 3.07418425e-02, 1.76315770e-01, 1.12067565e-01,
          1.48633480e-01, 1.07226104e-01, 1.12258673e-01, 1.02047987e-01,
          1.38517663e-01, 1.56097203e-01, 1.87828198e-01, 1.62336141e-01,
          1.01047941e-01, 6.58579841e-02, 6.75646290e-02, 7.60514885e-02,
          8.05932879e-02, 8.58321041e-02, 9.49953645e-02, 1.53471559e-01,
          2.09577888e-01, 1.05653673e-01, 1.03666097e-01, 2.56344557e-01,
          1.57746047e-01, 1.46082819e-01, 2.80170113e-01, 2.79868931e-01,
          2.35887095e-01, 1.43640667e-01, 1.17270678e-01, 2.12638199e-01,
          1.91803113e-01, 1.95563734e-01, 2.29136243e-01, 2.99240589e-01 ]
      - [ 1.20913595e-01, 9.37964767e-02, 2.40645800e-02, 1.55353881e-02,
          1.29593173e-02, 0., 0., 3.08608804e-02, 4.61892337e-02,
          2.61534899e-02, 0., 7.65742222e-03, 8.63750651e-03, 0., 0., 0.,
          1.27128780e-01, 8.29961151e-02, 3.33131962e-02, 2.54314952e-02,
          8.17485973e-02, 2.18884759e-02, 3.09734680e-02, 3.15885618e-02,
          5.48158325e-02, 4.76470403e-02, 3.22023071e-02, 8.57610926e-02,
          1.10526755e-01, 3.73902805e-02, 3.33869047e-02, 2.46739034e-02,
          5.62618524e-02, 1.08054742e-01, 1.28285140e-01, 1.82546496e-01,
          2.11173639e-01, 1.28105417e-01, 7.98951760e-02, 8.45701396e-02,
          9.98971313e-02, 5.31477518e-02, 6.39015511e-02, 9.14194360e-02,
          1.20136760e-01, 5.41597232e-02, 4.35659178e-02, 2.37408802e-02,
          2.14214265e-01, 2.47059405e-01, 1.97958052e-01, 1.89274192e-01,
          2.36446619e-01, 1.46261156e-01, 1.24843381e-01, 1.57820433e-01,
          2.93322444e-01, 2.35233262e-01, 2.29732573e-01, 2.62483865e-01,
          3.11288029e-01, 1.61014855e-01, 1.25461027e-01, 1.52250782e-01 ]
      - [ 8.71294513e-02, 4.99433614e-02, 3.21543142e-02, 2.96970941e-02,
          4.68251556e-02, 0., 2.32117325e-02, 3.34183685e-02,
          4.41192947e-02, 2.24174466e-02, 3.70005928e-02, 2.56139468e-02,
          4.03703935e-02, 3.35202701e-02, 4.32040207e-02, 4.55374345e-02,
          7.13588148e-02, 9.17525366e-02, 9.22910720e-02, 3.06876488e-02,
          5.85570559e-02, 3.50187905e-02, 2.64236238e-02, 4.60349508e-02,
          7.19621778e-02, 7.30156079e-02, 8.14539269e-02, 5.73884025e-02,
          6.52574226e-02, 6.02170974e-02, 4.59046066e-02, 3.36746052e-02,
          1.97523057e-01, 7.68066421e-02, 6.94385394e-02, 9.10444111e-02,
          1.84403807e-01, 1.09110236e-01, 1.16266325e-01, 1.51834756e-01,
          1.53981715e-01, 7.25130215e-02, 9.42467451e-02, 1.35058522e-01,
          1.45475656e-01, 6.48093969e-02, 6.92669302e-02, 1.17196448e-01,
          3.91032368e-01, 1.19576611e-01, 1.19836822e-01, 1.55084580e-01,
          1.51068047e-01, 1.40565932e-01, 1.52791515e-01, 2.74028271e-01,
          3.69682819e-01, 1.49876043e-01, 1.76730633e-01, 1.55460402e-01,
          1.38148397e-01, 1.31975830e-01, 1.59997791e-01, 2.17289835e-01 ]
      - [ 1.98836252e-02, 2.91800573e-02, 3.86599563e-02, 3.73494029e-02,
          2.65336018e-02, 0., 5.22819208e-03, 1.09684328e-02,
          6.09758347e-02, 4.67932560e-02, 2.14699190e-02, 2.91528348e-02,
          6.01294562e-02, 3.53554375e-02, 2.35684756e-02, 2.71805022e-02,
          9.50291976e-02, 4.07965556e-02, 4.41418961e-02, 3.57024297e-02,
          4.86426689e-02, 3.35045531e-02, 3.98339629e-02, 4.41767015e-02,
          4.68159094e-02, 3.31708267e-02, 2.94448957e-02, 3.16956453e-02,
          7.09438846e-02, 3.06958854e-02, 4.96181622e-02, 1.24074921e-01,
          1.47175848e-01, 9.56480578e-02, 9.44747701e-02, 1.00762181e-01,
          1.10222466e-01, 1.12569027e-01, 1.39922887e-01, 1.82980359e-01,
          8.62059966e-02, 4.14491780e-02, 5.14789447e-02, 1.88519984e-01,
          1.95667014e-01, 9.25742388e-02, 4.90010791e-02, 1.18763410e-01,
          1.93523481e-01, 1.12834349e-01, 1.15134537e-01, 1.97340667e-01,
          2.31900558e-01, 1.21600792e-01, 1.94900319e-01, 4.23560441e-01,
          1.83438033e-01, 9.14067477e-02, 9.99722555e-02, 1.13927938e-01,
          1.51283786e-01, 1.36630788e-01, 2.06637025e-01, 3.94530743e-01 ]
      - [ 0., 0., 0., 0., 0., 0., 0., 0., 0., 0., 0., 0., 0., 0., 0., 0.,
          1.62707996e-02, 4.87006046e-02, 1.49652466e-01, 3.30183618e-02,
          4.17107008e-02, 0., 1.88819319e-02, 7.30752852e-03,
          1.10640908e-02, 3.96584645e-02, 6.44009635e-02, 1.04701847e-01,
          6.93645999e-02, 3.96155156e-02, 2.69774888e-02, 2.61395574e-02,
          3.00700199e-02, 4.39588986e-02, 1.73267007e-01, 2.30283812e-01,
          2.22534165e-01, 8.03276971e-02, 5.95675297e-02, 4.50254865e-02,
          6.55391961e-02, 5.79653047e-02, 8.74539241e-02, 6.38850033e-02,
          5.74367270e-02, 2.89398525e-02, 1.97894890e-02, 1.74490791e-02,
          8.43866915e-02, 1.30985603e-01, 4.50580299e-01, 2.11815238e-01,
          1.69857070e-01, 9.71340314e-02, 8.36868137e-02, 7.41310418e-02,
          9.87841338e-02, 1.60206363e-01, 4.45499837e-01, 3.46075147e-01,
          2.66780257e-01, 1.22684382e-01, 8.05507451e-02, 7.84136578e-02 ]
      - [ 1.55724719e-01, 5.91529831e-02, 4.21108305e-02, 2.21826918e-02,
          1.99416578e-02, 0., 9.25310701e-03, 7.73301953e-03,
          2.31915656e-02, 1.27473492e-02, 8.52355454e-03, 1.76481493e-02,
          8.35091062e-03, 0., 0., 0., 1.21073104e-01, 6.18271455e-02,
          4.29458320e-02, 2.21033506e-02, 6.04531914e-02, 2.76436582e-02,
          6.74265716e-03, 2.44539557e-03, 1.81589834e-02, 2.52869781e-02,
          3.08229327e-02, 4.28608656e-02, 1.29126057e-01, 4.83094268e-02,
          4.94832508e-02, 6.70778453e-02, 5.91620430e-02, 4.68795560e-02,
          7.95415714e-02, 1.81005910e-01, 2.51429141e-01, 9.07832533e-02,
          6.43496737e-02, 5.32841124e-02, 5.45745417e-02, 4.55923975e-02,
          3.80751938e-02, 1.21091813e-01, 1.87350392e-01, 4.38196734e-02,
          3.43303643e-02, 2.83206161e-02, 2.02419460e-01, 1.72205359e-01,
          1.33195385e-01, 1.78574145e-01, 2.15922996e-01, 1.42580405e-01,
          1.40120715e-01, 1.53257787e-01, 2.59760112e-01, 1.89449817e-01,
          1.89493999e-01, 2.93809056e-01, 4.51820463e-01, 1.73400238e-01,
          1.29161462e-01, 1.51896805e-01 ]
      - [ 3.02088596e-02, 5.58718760e-03, 2.67187762e-03, 0.,
          3.33254528e-03, 4.20933170e-03, 5.09624090e-03, 6.09593932e-03,
          1.07233599e-02, 5.31010749e-03, 6.11594273e-03, 8.44627246e-03,
          1.21942954e-02, 5.02188690e-03, 7.51245813e-03, 5.96552752e-02,
          4.13506404e-02, 6.86216680e-03, 6.01414731e-03, 1.96764548e-03,
          9.65691078e-03, 0., 9.27798823e-03, 6.16710214e-03,
          8.90776329e-03, 6.38522487e-03, 6.49430323e-03, 1.04766889e-02,
          3.79733965e-02, 5.97849675e-03, 3.31114829e-02, 1.33139297e-01,
          8.46796483e-02, 7.48271495e-02, 9.11752656e-02, 1.21725939e-01,
          1.33911490e-01, 1.20982058e-01, 1.04845636e-01, 1.30191863e-01,
          1.10765263e-01, 5.82460910e-02, 7.79988617e-02, 1.88318610e-01,
          2.82305151e-01, 8.65877196e-02, 5.69696352e-02, 9.42339450e-02,
          2.08240926e-01, 1.40249908e-01, 1.19619407e-01, 1.55464619e-01,
          2.73487240e-01, 1.47546157e-01, 1.68880910e-01, 4.37879741e-01,
          1.86332330e-01, 1.54351577e-01, 8.98387954e-02, 6.03090636e-02,
          1.21860690e-01, 8.98273438e-02, 1.86746508e-01, 4.15941000e-01 ]
      - [ 1.17992692e-01, 4.86209914e-02, 2.59447731e-02, 1.89386420e-02,
          1.44763375e-02, 0., 0., 2.22476702e-02, 5.51242754e-02,
          2.50423811e-02, 0., 0., 0., 0., 9.08323005e-03, 0.,
          1.29392624e-01, 2.88526900e-02, 2.61563212e-02, 3.94527204e-02,
          6.09742962e-02, 2.45542116e-02, 2.92119831e-02, 3.67596559e-02,
          6.99654371e-02, 5.20470738e-02, 3.48392762e-02, 5.37424088e-02,
          1.13757394e-01, 3.43383737e-02, 2.82600783e-02, 2.45591197e-02,
          1.26497969e-01, 1.09359816e-01, 1.20224245e-01, 1.56139359e-01,
          1.87842280e-01, 1.07930571e-01, 1.02226801e-01, 7.28960484e-02,
          1.04319677e-01, 1.00681663e-01, 8.81646723e-02, 1.71619982e-01,
          2.22549543e-01, 8.59725699e-02, 6.47050664e-02, 4.54926006e-02,
          2.75907427e-01, 1.78799823e-01, 1.60516843e-01, 1.86318532e-01,
          2.60114789e-01, 1.09801657e-01, 1.01664938e-01, 1.32876396e-01,
          2.91430265e-01, 2.04229578e-01, 1.92905620e-01, 2.21809939e-01,
          3.68189842e-01, 1.32924750e-01, 1.30684495e-01, 1.18737526e-01 ]
      - [ 1.08425915e-01, 5.10605723e-02, 3.07814050e-02, 3.86755429e-02,
          3.96803468e-02, 3.13766785e-02, 2.59901062e-02, 4.92009427e-03,
          2.40206923e-02, 1.93096213e-02, 1.16724800e-02, 7.64931412e-03,
          2.12515332e-02, 2.54365075e-02, 2.33217776e-02, 3.56133729e-02,
          6.29447699e-02, 3.56089510e-02, 3.48112620e-02, 4.31331694e-02,
          1.12078398e-01, 1.85501743e-02, 2.44422182e-02, 3.99248339e-02,
          4.49428558e-02, 4.96829338e-02, 5.40273041e-02, 4.72947545e-02,
          1.41641185e-01, 4.22025584e-02, 4.76575270e-02, 6.05227165e-02,
          1.75098956e-01, 1.33501947e-01, 1.19404837e-01, 1.05040818e-01,
          1.34570867e-01, 9.69835222e-02, 1.20950215e-01, 1.23245828e-01,
          1.72274485e-01, 1.20316684e-01, 6.89718500e-02, 9.52107012e-02,
          1.05421424e-01, 7.16584027e-02, 7.03109801e-02, 5.95109016e-02,
          2.98839480e-01, 2.08144411e-01, 1.31997749e-01, 1.85758054e-01,
          2.83704728e-01, 1.39048651e-01, 1.48420170e-01, 2.03137815e-01,
